{"learner":{"attributes":{},"feature_names":[],"feature_types":[],"gradient_booster":{"model":{"gbtree_model_param":{"num_trees":"60","size_leaf_vector":"0"},"tree_info":[0,1,2,3,4,5,0,1,2,3,4,5,0,1,2,3,4,5,0,1,2,3,4,5,0,1,2,3,4,5,0,1,2,3,4,5,0,1,2,3,4,5,0,1,2,3,4,5,0,1,2,3,4,5,0,1,2,3,4,5],"trees":[{"base_weights":[9.383259E-1,1.4954239E0,9.597803E-2,1.7400801E0,9.487179E-1,6.106194E-1,-1.3350788E-1,1.8653554E0,7.3381287E-1,-1.0714287E-1,1.1262457E0,1.4347825E0,1.1512412E-1,9.535449E-2,-3.8736263E-1,-1.0344829E-1,1.906845E0,1.6271186E0,6.74157E-2,-5.0442475E-1,5.342465E-1,-1.4285715E-1,1.1958041E0,6.992481E-1,1.9565216E0,-2.967033E-1,7.021276E-1,-7.894739E-2,5.526315E-1,-4.3220338E-1,6.315789E-1,-3.1578946E-1,1.5789472E-1,2.2583518E0,1.5776104E0,6.976742E-2,2.032258E0,5.454545E-1,-3.3333334E-1,9.6226406E-1,-3.1578946E-1,1.5789472E-1,-3.488372E-1,1.7524751E0,8.6387426E-1,1.2580644E0,-4.1379312E-1,7.4999994E-1,2.1666665E0,3.975903E-1,-5.480769E-1,-2.2351742E-8,1.3469387E0,6.9230765E-1,-1.861314E-1,-4.6153846E-1,9.642856E-1,2.2556366E-2,-5.2107924E-1,1.5789472E-1,2.302961E0,5.1219505E-1,1.6847597E0,-5.660379E-2,9.6226406E-1,-4.7727272E-1,1.5789472E-1,1.8992804E0,6.976742E-2,-4.4117647E-1,1.003824E0,-1.6763806E-8,1.8571428E0,6.315789E-1,2.3863635E0,7.142857E-1,-3.1578946E-1,-4.2857143E-1,4.285714E-1,1.8571428E0,2.8301883E-1,-1.0344829E-1,1.5789473E0,-2.795031E-1,3.975903E-1,1.4271843E0,1.8072286E-1,-4.698795E-1,6.17647E-1,-5.497382E-1,1.5789472E-1],"categories":[],"categories_nodes":[],"categories_segments":[],"categories_sizes":[],"default_left":[true,true,true,true,true,true,true,true,true,true,true,true,true,true,true,true,true,true,true,false,true,true,true,true,true,true,true,true,true,true,false,false,false,true,true,false,false,true,true,false,false,false,false,true,true,true,false,false,true,true,false,true,true,true,true,false,true,true,true,false,false,false,false,false,false,false,false,false,false,false,false,false,false,false,false,false,false,false,false,false,false,false,false,false,false,false,false,false,false,false,false],"id":0,"left_children":[1,3,5,7,9,11,13,15,17,19,21,23,25,27,29,31,33,35,37,-1,39,41,43,45,47,49,51,53,55,57,-1,-1,-1,59,61,-1,-1,63,65,-1,-1,-1,-1,67,69,71,-1,-1,73,75,-1,77,79,81,83,-1,85,87,89,-1,-1,-1,-1,-1,-1,-1,-1,-1,-1,-1,-1,-1,-1,-1,-1,-1,-1,-1,-1,-1,-1,-1,-1,-1,-1,-1,-1,-1,-1,-1,-1],"loss_changes":[1.4188895E2,2.2707458E1,1.4437592E1,1.4339691E1,1.1086185E1,1.521672E1,4.968795E0,9.196228E0,9.084328E0,2.6477363E0,4.599373E0,4.0258255E0,6.1579156E0,3.6657438E0,2.120881E0,2.286751E-1,8.929382E0,3.9944038E0,2.0762682E0,0E0,1.779407E0,2.7190065E-1,7.2937317E0,5.1163616E0,3.1884003E-1,2.8649044E0,4.728615E0,2.9211411E0,5.733227E0,1.6014957E0,0E0,0E0,0E0,4.310974E0,5.878769E0,0E0,0E0,1.2813036E0,4.996013E-1,0E0,0E0,0E0,0E0,4.025837E0,6.2569504E0,3.8940086E0,0E0,0E0,5.163479E-1,1.2673249E0,0E0,1.2857141E0,2.4297266E0,3.2207174E0,1.7704442E0,0E0,3.1273699E0,2.4554892E0,7.2785664E-1,0E0,0E0,0E0,0E0,0E0,0E0,0E0,0E0,0E0,0E0,0E0,0E0,0E0,0E0,0E0,0E0,0E0,0E0,0E0,0E0,0E0,0E0,0E0,0E0,0E0,0E0,0E0,0E0,0E0,0E0,0E0,0E0],"parents":[2147483647,0,0,1,1,2,2,3,3,4,4,5,5,6,6,7,7,8,8,9,9,10,10,11,11,12,12,13,13,14,14,15,15,16,16,17,17,18,18,20,20,21,21,22,22,23,23,24,24,25,25,26,26,27,27,28,28,29,29,33,33,34,34,37,37,38,38,43,43,44,44,45,45,48,48,49,49,51,51,52,52,53,53,54,54,56,56,57,57,58,58],"right_children":[2,4,6,8,10,12,14,16,18,20,22,24,26,28,30,32,34,36,38,-1,40,42,44,46,48,50,52,54,56,58,-1,-1,-1,60,62,-1,-1,64,66,-1,-1,-1,-1,68,70,72,-1,-1,74,76,-1,78,80,82,84,-1,86,88,90,-1,-1,-1,-1,-1,-1,-1,-1,-1,-1,-1,-1,-1,-1,-1,-1,-1,-1,-1,-1,-1,-1,-1,-1,-1,-1,-1,-1,-1,-1,-1,-1],"split_conditions":[3.2692307E-1,2.3461539E-1,1.5269461E-1,4.776786E-1,1.6780822E-1,4.2307693E-1,4.5384616E-1,9.931507E-2,1.9161677E-1,1.22704506E-1,3.6123347E-1,3.7692308E-1,2.8424656E-1,1.22704506E-1,7.5446427E-1,6.849315E-2,4.90991E-1,5.2232146E-1,1.6153847E-1,-1.5132743E-1,2.8443113E-1,1.5625E-1,2.4553572E-1,4.7393537E-1,9.348915E-2,4.6923077E-1,3.5E-2,7.262103E-2,1.55E-1,1.4732143E-1,1.8947369E-1,-9.4736844E-2,4.736842E-2,1.7567568E-1,1.03846155E-1,2.0930227E-2,6.0967743E-1,9.246576E-2,2.8082192E-1,2.8867924E-1,-9.4736844E-2,4.736842E-2,-1.0465116E-1,4.3150684E-1,2.4999999E-2,1.0016695E-1,-1.2413794E-1,2.25E-1,1.5E-2,1.2437396E-1,-1.6442308E-1,8.7646075E-2,8.013356E-2,4.1538462E-1,3.5445207E-1,-1.3846155E-1,6.145375E-1,8.5E-2,6.75E-1,4.736842E-2,6.9088835E-1,1.5365852E-1,5.0542796E-1,-1.6981138E-2,2.8867924E-1,-1.4318182E-1,4.736842E-2,5.6978416E-1,2.0930227E-2,-1.3235295E-1,3.0114722E-1,-5.029142E-9,5.5714285E-1,1.8947369E-1,7.1590906E-1,2.1428572E-1,-9.4736844E-2,-1.2857144E-1,1.2857142E-1,5.5714285E-1,8.4905654E-2,-3.1034486E-2,4.7368422E-1,-8.3850935E-2,1.192771E-1,4.2815533E-1,5.421686E-2,-1.4096385E-1,1.852941E-1,-1.6492148E-1,4.736842E-2],"split_indices":[10,10,9,0,1,10,10,1,9,4,7,10,1,4,0,3,8,0,10,0,9,0,0,7,4,10,2,4,2,0,0,0,0,8,10,0,0,3,1,0,0,0,0,1,2,4,0,0,2,4,0,4,4,10,1,0,7,2,2,0,0,0,0,0,0,0,0,0,0,0,0,0,0,0,0,0,0,0,0,0,0,0,0,0,0,0,0,0,0,0,0],"split_type":[0,0,0,0,0,0,0,0,0,0,0,0,0,0,0,0,0,0,0,0,0,0,0,0,0,0,0,0,0,0,0,0,0,0,0,0,0,0,0,0,0,0,0,0,0,0,0,0,0,0,0,0,0,0,0,0,0,0,0,0,0,0,0,0,0,0,0,0,0,0,0,0,0,0,0,0,0,0,0,0,0,0,0,0,0,0,0,0,0,0,0],"sum_hessian":[3.016667E2,1.8111111E2,1.20555565E2,1.23611115E2,5.7500004E1,3.6666668E1,8.388889E1,1.0916667E2,1.4444445E1,8.333334E0,4.9166668E1,1.3055556E1,2.3611113E1,4.4444447E1,3.9444447E1,2.2222223E0,1.0694445E2,5.555556E0,8.888889E0,5.277778E0,3.0555558E0,2.5E0,4.6666668E1,6.3888893E0,6.666667E0,1.4166667E1,9.444445E0,3.277778E1,1.1666667E1,3.8333336E1,1.1111112E0,1.1111112E0,1.1111112E0,4.8888893E1,5.8055557E1,1.388889E0,4.166667E0,3.888889E0,5E0,1.9444445E0,1.1111112E0,1.1111112E0,1.388889E0,1.5833334E1,3.0833334E1,4.166667E0,2.2222223E0,1.6666667E0,5E0,3.6111112E0,1.0555556E1,5E0,4.4444447E0,3.3333335E0,2.9444447E1,3.3333335E0,8.333334E0,6.3888893E0,3.1944447E1,1.1111112E0,4.777778E1,5.8333335E0,5.2222225E1,1.9444445E0,1.9444445E0,3.888889E0,1.1111112E0,1.4444445E1,1.388889E0,2.777778E0,2.8055557E1,1.6666667E0,2.5E0,1.1111112E0,3.888889E0,2.5E0,1.1111112E0,2.5E0,2.5E0,2.5E0,1.9444445E0,2.2222223E0,1.1111112E0,2.5833334E1,3.6111112E0,4.7222223E0,3.6111112E0,3.6111112E0,2.777778E0,3.0833334E1,1.1111112E0],"tree_param":{"num_deleted":"0","num_feature":"11","num_nodes":"91","size_leaf_vector":"0"}},{"base_weights":[8.27301E-1,4.2051047E-1,1.1040891E0,-2.7190357E-2,7.6788545E-1,1.1690884E0,1.1009171E-1,6.0937494E-1,-1.18912816E-1,9.162955E-1,-4.117647E-1,1.2473854E0,2.9670325E-1,6.106194E-1,-3.6585367E-1,1.0481927E0,-1.4285715E-1,-1.7033605E-1,1.1052631E0,1.0721102E0,9.0909064E-2,-5.18797E-1,1.5789472E-1,9.6717E-1,1.5662459E0,6.063829E-1,-3.2038835E-1,-3.488372E-1,9.545454E-1,1.5789472E-1,-4.9514562E-1,1.4482758E0,6.976742E-2,-3.488372E-1,1.5789472E-1,1.8633513E-2,-3.919598E-1,1.2833098E0,3.8709673E-1,-3.0379748E-1,1.137931E0,1.1253309E0,4.8529407E-1,-3.75E-1,1.6187397E0,-3.962264E-1,8.823529E-1,-4.698795E-1,1.5789472E-1,3.5294113E-1,1.5789473E0,-1.9582246E-1,7.1186435E-1,-5.515695E-1,-1.7098448E-1,2.5423726E-1,1.4437193E0,-3.4513274E-1,8.823529E-1,-5.18797E-1,4.8837206E-1,1.5789473E0,1.5789472E-1,6.623376E-1,1.2704625E0,2.2147647E-1,1.0312499E0,-1.6763806E-8,1.6589403E0,1.4271843E0,-1.764706E-1,1.1052631E0,-3.75E-1],"categories":[],"categories_nodes":[],"categories_segments":[],"categories_sizes":[],"default_left":[true,true,true,true,true,true,true,true,true,true,true,true,true,true,true,true,true,true,false,true,true,false,false,true,true,true,true,false,true,false,false,false,false,false,false,true,true,true,true,true,true,true,true,false,true,false,true,false,false,true,false,false,false,false,false,false,false,false,false,false,false,false,false,false,false,false,false,false,false,false,false,false,false],"id":1,"left_children":[1,3,5,7,9,11,13,15,17,19,21,23,25,27,29,31,33,35,-1,37,39,-1,-1,41,43,45,47,-1,49,-1,-1,-1,-1,-1,-1,51,53,55,57,59,61,63,65,-1,67,-1,69,-1,-1,71,-1,-1,-1,-1,-1,-1,-1,-1,-1,-1,-1,-1,-1,-1,-1,-1,-1,-1,-1,-1,-1,-1,-1],"loss_changes":[3.358313E1,1.9314009E1,1.14578705E1,3.2934973E0,1.2612888E1,1.1120331E1,3.108553E0,2.497069E0,3.2763667E0,7.926201E0,6.0017693E-1,1.2249985E1,3.092639E0,2.404535E0,5.4091007E-1,1.7039833E0,2.7190065E-1,2.0152237E0,0E0,7.0825768E0,4.891631E0,0E0,0E0,5.9024353E0,7.785568E0,3.2394853E0,4.833253E-1,0E0,1.2792006E0,0E0,0E0,0E0,0E0,0E0,0E0,4.1286435E0,6.8554497E-1,6.1716766E0,5.3009176E0,1.7483627E0,1.1433754E0,3.3880692E0,3.036345E0,0E0,4.475647E0,0E0,5.1553392E0,0E0,0E0,2.4833589E0,0E0,0E0,0E0,0E0,0E0,0E0,0E0,0E0,0E0,0E0,0E0,0E0,0E0,0E0,0E0,0E0,0E0,0E0,0E0,0E0,0E0,0E0,0E0],"parents":[2147483647,0,0,1,1,2,2,3,3,4,4,5,5,6,6,7,7,8,8,9,9,10,10,11,11,12,12,13,13,14,14,15,15,16,16,17,17,19,19,20,20,23,23,24,24,25,25,26,26,28,28,35,35,36,36,37,37,38,38,39,39,40,40,41,41,42,42,44,44,46,46,49,49],"right_children":[2,4,6,8,10,12,14,16,18,20,22,24,26,28,30,32,34,36,-1,38,40,-1,-1,42,44,46,48,-1,50,-1,-1,-1,-1,-1,-1,52,54,56,58,60,62,64,66,-1,68,-1,70,-1,-1,72,-1,-1,-1,-1,-1,-1,-1,-1,-1,-1,-1,-1,-1,-1,-1,-1,-1,-1,-1,-1,-1,-1,-1],"split_conditions":[2.423077E-1,1.4670658E-1,4.8801368E-1,9.5993325E-2,3.3215547E-1,2.8091872E-1,1.0934891E-1,5.315315E-1,7.027027E-1,3.6643833E-1,4.558304E-1,1.7605633E-1,5.2753305E-1,8.928572E-2,3.6490455E-1,2.5352114E-1,2.232143E-1,5.209251E-1,3.3157894E-1,1.427379E-1,5.939794E-1,-1.556391E-1,4.736842E-2,5.630631E-1,2.837838E-1,6.0934894E-2,4.4196427E-1,-1.0465116E-1,7.162162E-1,4.736842E-2,-1.4854369E-1,4.3448275E-1,2.0930227E-2,-1.0465116E-1,4.736842E-2,4.904552E-1,5E-1,1.9196428E-1,1.7445743E-1,1.6777962E-1,2.1830985E-1,1.4726028E-1,1.3380282E-1,-1.12500004E-1,9.281437E-2,-1.1886793E-1,1.0851419E-1,-1.4096385E-1,4.736842E-2,3.923077E-1,4.7368422E-1,-5.874674E-2,2.1355931E-1,-1.6547087E-1,-5.1295344E-2,7.6271184E-2,4.331158E-1,-1.03539824E-1,2.6470587E-1,-1.556391E-1,1.4651163E-1,4.7368422E-1,4.736842E-2,1.9870129E-1,3.8113877E-1,6.6442944E-2,3.09375E-1,-5.029142E-9,4.9768212E-1,4.2815533E-1,-5.294118E-2,3.3157894E-1,-1.12500004E-1],"split_indices":[10,9,1,4,6,6,4,8,8,1,6,5,7,0,7,5,0,7,0,4,7,0,0,8,8,4,0,0,8,0,0,0,0,0,0,7,8,0,4,4,5,1,5,0,9,0,4,0,0,10,0,0,0,0,0,0,0,0,0,0,0,0,0,0,0,0,0,0,0,0,0,0,0],"split_type":[0,0,0,0,0,0,0,0,0,0,0,0,0,0,0,0,0,0,0,0,0,0,0,0,0,0,0,0,0,0,0,0,0,0,0,0,0,0,0,0,0,0,0,0,0,0,0,0,0,0,0,0,0,0,0,0,0,0,0,0,0,0,0,0,0,0,0,0,0,0,0,0,0],"sum_hessian":[3.0138892E2,1.23055565E2,1.7833334E2,5.4166668E1,6.888889E1,1.6722223E2,1.1111112E1,6.1111116E0,4.8055557E1,6.1388893E1,7.5000005E0,1.5305556E2,1.4166667E1,5.277778E0,5.8333335E0,3.6111112E0,2.5E0,4.6944447E1,1.1111112E0,5.1388893E1,1E1,6.3888893E0,1.1111112E0,8.3611115E1,6.944445E1,9.444445E0,4.7222223E0,1.388889E0,3.888889E0,1.1111112E0,4.7222223E0,2.2222223E0,1.388889E0,1.388889E0,1.1111112E0,2.5833334E1,2.1111113E1,3.8611115E1,1.2777779E1,7.777778E0,2.2222223E0,6.1944447E1,2.1666668E1,1.6666667E0,6.777778E1,1.9444445E0,7.5000005E0,3.6111112E0,1.1111112E0,2.777778E0,1.1111112E0,2.0277779E1,5.555556E0,1.1388889E1,9.722222E0,5.555556E0,3.3055557E1,5.277778E0,7.5000005E0,6.3888893E0,1.388889E0,1.1111112E0,1.1111112E0,1.6111113E1,4.5833336E1,1.5555556E1,6.1111116E0,1.6666667E0,6.6111115E1,4.7222223E0,2.777778E0,1.1111112E0,1.6666667E0],"tree_param":{"num_deleted":"0","num_feature":"11","num_nodes":"73","size_leaf_vector":"0"}},{"base_weights":[-1.7332344E-1,6.309962E-1,-3.1517002E-1,9.9999994E-1,2.980132E-1,-4.8586708E-1,-8.7525174E-2,2.9533675E-1,1.5812807E0,3.0927807E-2,1.4819276E0,-5.120101E-1,-2.1673004E-1,1.8749999E0,-1.3483147E-1,-2.4812031E-1,1.153846E0,2.0689653E-1,1.8957053E0,4.7191006E-1,-3.157895E-1,1.5789472E-1,1.8571428E0,-3.5262206E-1,-5.54951E-1,-4.7368422E-1,9.6226406E-1,-3.5507923E-1,1.2956807E-1,8.823527E-2,-4.698795E-1,6.976742E-2,1.6415093E0,-3.1578946E-1,6.315789E-1,1.0481927E0,2.265306E0,-2.6548693E-2,1.0481927E0,-4.4262296E-1,1.4285712E-1,-4.054054E-1,2.8301883E-1,1.5789472E-1,-5.6435645E-1,1.5789472E-1,-5.480769E-1,2.5423726E-1,-4.2240494E-1,1.016949E0,-3.736016E-3,-3.488372E-1,4.8837206E-1,1.4482758E0,6.976742E-2,-4.520548E-1,5.1724136E-1,-3.1578946E-1,1.5714284E0,1.5789472E-1,-5.337423E-1,4.8837206E-1,-3.1578946E-1,-7.5949386E-2,-5.238095E-1,-5.828877E-1,-2.9411766E-1,-2.5301206E-1,9.6226406E-1,2.307692E-1,-4.698795E-1,-1.0344829E-1,1.6153845E0,-2.3560211E-1,5.3225803E-1],"categories":[],"categories_nodes":[],"categories_segments":[],"categories_sizes":[],"default_left":[true,true,true,true,true,true,true,true,true,true,true,true,true,false,true,true,true,true,true,true,true,false,false,true,true,true,false,true,true,true,false,false,false,false,false,true,false,true,true,true,true,true,false,false,true,false,false,true,true,true,true,false,false,false,false,false,false,false,false,false,false,false,false,false,false,false,false,false,false,false,false,false,false,false,false],"id":2,"left_children":[1,3,5,7,9,11,13,15,17,19,21,23,25,-1,27,29,31,33,35,37,39,-1,-1,41,43,45,-1,47,49,51,-1,-1,-1,-1,-1,53,-1,55,57,59,61,63,-1,-1,65,-1,-1,67,69,71,73,-1,-1,-1,-1,-1,-1,-1,-1,-1,-1,-1,-1,-1,-1,-1,-1,-1,-1,-1,-1,-1,-1,-1,-1],"loss_changes":[3.431812E1,5.2517033E0,9.862024E0,8.134739E0,7.9120245E0,9.1239166E-1,1.0506451E1,5.2888846E0,4.481369E0,3.4447865E0,1.9975538E0,7.0661545E-1,4.882209E0,0E0,6.3805075E0,5.925969E-1,2.1763587E0,9.147005E-1,4.6209335E-1,2.8684423E0,8.00074E-1,0E0,0E0,1.1455064E0,7.737217E-1,6.816802E-1,0E0,2.5527978E0,5.938091E0,8.310533E-1,0E0,0E0,0E0,0E0,0E0,1.7039833E0,0E0,1.6864111E0,3.7871184E0,6.405828E-1,7.0886517E-1,1.0828075E0,0E0,0E0,3.3435822E-1,0E0,0E0,2.597867E0,1.7846518E0,4.5625143E0,5.6696186E0,0E0,0E0,0E0,0E0,0E0,0E0,0E0,0E0,0E0,0E0,0E0,0E0,0E0,0E0,0E0,0E0,0E0,0E0,0E0,0E0,0E0,0E0,0E0,0E0],"parents":[2147483647,0,0,1,1,2,2,3,3,4,4,5,5,6,6,7,7,8,8,9,9,10,10,11,11,12,12,14,14,15,15,16,16,17,17,18,18,19,19,20,20,23,23,24,24,25,25,27,27,28,28,29,29,35,35,37,37,38,38,39,39,40,40,41,41,44,44,47,47,48,48,49,49,50,50],"right_children":[2,4,6,8,10,12,14,16,18,20,22,24,26,-1,28,30,32,34,36,38,40,-1,-1,42,44,46,-1,48,50,52,-1,-1,-1,-1,-1,54,-1,56,58,60,62,64,-1,-1,66,-1,-1,68,70,72,74,-1,-1,-1,-1,-1,-1,-1,-1,-1,-1,-1,-1,-1,-1,-1,-1,-1,-1,-1,-1,-1,-1,-1,-1],"split_conditions":[1.541096E-1,4.5190895E-1,1.7664671E-1,3.0803573E-1,6.1160713E-1,1.8150684E-1,6.696428E-2,7.876712E-2,4.009009E-1,1.19718306E-1,9.154929E-2,3.5E-2,1.5269461E-1,5.625E-1,3.15E-1,3.65E-1,2.2321428E-1,2.2155687E-1,2.1856287E-1,1.1986302E-1,1.3272122E-1,4.736842E-2,5.5714285E-1,4.1549295E-1,2.0264317E-1,1.9349316E-1,2.8867924E-1,7.746479E-2,3.946402E-1,1.3839287E-1,-1.4096385E-1,2.0930227E-2,4.924528E-1,-9.4736844E-2,1.8947369E-1,3.634361E-1,6.7959183E-1,3.3233532E-1,4.234234E-1,7.5959936E-2,1.2671232E-1,3.2534248E-1,8.4905654E-2,4.736842E-2,1.7065868E-1,4.736842E-2,-1.6442308E-1,8.561644E-2,1.9520548E-1,3.4875184E-1,1.3356164E-1,-1.0465116E-1,1.4651163E-1,4.3448275E-1,2.0930227E-2,-1.3561645E-1,1.5517241E-1,-9.4736844E-2,4.7142854E-1,4.736842E-2,-1.601227E-1,1.4651163E-1,-9.4736844E-2,-2.2784816E-2,-1.5714285E-1,-1.7486632E-1,-8.8235304E-2,-7.5903624E-2,2.8867924E-1,6.9230765E-2,-1.4096385E-1,-3.1034486E-2,4.8461536E-1,-7.068063E-2,1.5967742E-1],"split_indices":[1,7,9,0,0,3,0,3,8,5,5,2,9,0,2,2,0,9,9,1,4,0,0,5,7,3,0,5,7,0,0,0,0,0,0,7,0,9,8,4,3,1,0,0,9,0,0,3,1,7,3,0,0,0,0,0,0,0,0,0,0,0,0,0,0,0,0,0,0,0,0,0,0,0,0],"split_type":[0,0,0,0,0,0,0,0,0,0,0,0,0,0,0,0,0,0,0,0,0,0,0,0,0,0,0,0,0,0,0,0,0,0,0,0,0,0,0,0,0,0,0,0,0,0,0,0,0,0,0,0,0,0,0,0,0,0,0,0,0,0,0,0,0,0,0,0,0,0,0,0,0,0,0],"sum_hessian":[2.9805557E2,4.4166668E1,2.538889E2,2E1,2.4166668E1,1.4444446E2,1.0944445E2,9.722222E0,1.0277779E1,2.0555557E1,3.6111112E0,1.3083334E2,1.3611112E1,1.6666667E0,1.0777779E2,6.3888893E0,3.3333335E0,2.2222223E0,8.055556E0,8.888889E0,1.1666667E1,1.1111112E0,2.5E0,2.9722223E1,1.01111115E2,1.1666667E1,1.9444445E0,5.8611115E1,4.9166668E1,2.777778E0,3.6111112E0,1.388889E0,1.9444445E0,1.1111112E0,1.1111112E0,3.6111112E0,4.4444447E0,5.277778E0,3.6111112E0,9.166667E0,2.5E0,2.7777779E1,1.9444445E0,1.1111112E0,1.0000001E2,1.1111112E0,1.0555556E1,5.555556E0,5.3055557E1,5.555556E0,4.3611115E1,1.388889E0,1.388889E0,2.2222223E0,1.388889E0,3.0555558E0,2.2222223E0,1.1111112E0,2.5E0,1.1111112E0,8.055556E0,1.388889E0,1.1111112E0,7.777778E0,2E1,9.250001E1,7.5000005E0,3.6111112E0,1.9444445E0,3.3333335E0,4.9722225E1,2.2222223E0,3.3333335E0,3.0833334E1,1.2777779E1],"tree_param":{"num_deleted":"0","num_feature":"11","num_nodes":"75","size_leaf_vector":"0"}},{"base_weights":[-5.056797E-1,-3.6305732E-1,-5.530396E-1,-2.4950781E-8,-4.3734014E-1,-5.5725944E-1,1.5789472E-1,-1.9211824E-1,5.342465E-1,3.797466E-2,-5.024201E-1,-1.4285715E-1,-5.612806E-1,4.285714E-1,-4.177215E-1,-3.488372E-1,1.1249999E0,-3.0612245E-1,4.615384E-1,-5.1785713E-1,6.976742E-2,1.5789472E-1,-3.488372E-1,-5.7281554E-1,-3.8961038E-1,-3.1578946E-1,9.069767E-1,-5.18797E-1,6.976742E-2,-4.6153846E-1,1.5789472E-1,-3.75E-1,1.1249999E0,-5.6016594E-1,-3.8613862E-1,-5.7748777E-1,-1.6763806E-8,2.876712E-1,-5.5731225E-1,-2.6548693E-2,-5.480769E-1,-3.75E-1,9.069767E-1],"categories":[],"categories_nodes":[],"categories_segments":[],"categories_sizes":[],"default_left":[true,true,true,true,true,true,false,true,true,true,true,true,true,true,true,false,false,true,true,true,false,false,false,true,true,false,false,false,false,false,false,false,false,false,true,false,false,true,false,false,false,false,false],"id":3,"left_children":[1,3,5,7,9,11,-1,13,15,17,19,21,23,25,27,-1,-1,29,31,33,-1,-1,-1,35,37,-1,-1,-1,-1,-1,-1,-1,-1,-1,39,-1,-1,41,-1,-1,-1,-1,-1],"loss_changes":[1.8473587E0,2.1170607E0,7.6516724E-1,1.5737903E0,2.0349102E0,2.940979E-1,0E0,1.7582464E0,2.5081635E0,1.4206227E0,5.4303837E-1,2.7190065E-1,2.1665192E-1,1.5327854E0,4.687041E-1,0E0,0E0,4.6550435E-1,2.826923E0,9.5778465E-2,0E0,0E0,0E0,5.5132294E-1,2.1038263E0,0E0,0E0,0E0,0E0,0E0,0E0,0E0,0E0,0E0,9.6567774E-1,0E0,0E0,2.0044997E0,0E0,0E0,0E0,0E0,0E0],"parents":[2147483647,0,0,1,1,2,2,3,3,4,4,5,5,7,7,8,8,9,9,10,10,11,11,12,12,13,13,14,14,17,17,18,18,19,19,23,23,24,24,34,34,37,37],"right_children":[2,4,6,8,10,12,-1,14,16,18,20,22,24,26,28,-1,-1,30,32,34,-1,-1,-1,36,38,-1,-1,-1,-1,-1,-1,-1,-1,-1,40,-1,-1,42,-1,-1,-1,-1,-1],"split_conditions":[9.5E-2,1.0479042E-1,7.55E-1,6.801802E-1,3.0035336E-2,6.287425E-2,4.736842E-2,5E-3,2E-2,2.29682E-2,1.8447411E-1,2.8125E-1,6.1160713E-1,9.18197E-2,2.112676E-1,-1.0465116E-1,3.3749998E-1,2.3214287E-1,1.4371258E-1,3.923077E-1,2.0930227E-2,4.736842E-2,-1.0465116E-1,7.87812E-1,6.174743E-1,-9.4736844E-2,2.7209303E-1,-1.556391E-1,2.0930227E-2,-1.3846155E-1,4.736842E-2,-1.12500004E-1,3.3749998E-1,-1.6804978E-1,1.4670658E-1,-1.7324634E-1,-5.029142E-9,6.1837457E-2,-1.6719368E-1,-7.964608E-3,-1.6442308E-1,-1.12500004E-1,2.7209303E-1],"split_indices":[2,9,2,8,6,9,0,2,2,6,4,0,0,4,5,0,0,0,9,10,0,0,0,7,7,0,0,0,0,0,0,0,0,0,9,0,0,6,0,0,0,0,0],"split_type":[0,0,0,0,0,0,0,0,0,0,0,0,0,0,0,0,0,0,0,0,0,0,0,0,0,0,0,0,0,0,0,0,0,0,0,0,0,0,0,0,0,0,0],"sum_hessian":[3.0222223E2,7.75E1,2.2472223E2,1.3333334E1,6.416667E1,2.2361111E2,1.1111112E0,1.0277779E1,3.0555558E0,7.777778E0,5.6388893E1,2.5E0,2.2111111E2,2.5E0,7.777778E0,1.388889E0,1.6666667E0,4.4444447E0,3.3333335E0,5.5000004E1,1.388889E0,1.1111112E0,1.388889E0,2.0500002E2,1.6111113E1,1.1111112E0,1.388889E0,6.3888893E0,1.388889E0,3.3333335E0,1.1111112E0,1.6666667E0,1.6666667E0,3.9166668E1,1.5833334E1,2.0333334E2,1.6666667E0,3.0555558E0,1.3055556E1,5.277778E0,1.0555556E1,1.6666667E0,1.388889E0],"tree_param":{"num_deleted":"0","num_feature":"11","num_nodes":"43","size_leaf_vector":"0"}},{"base_weights":[-5.5837005E-1,1.5789472E-1,-5.615328E-1,-5.786123E-1,-4.3792632E-1,-2.7272728E-1,-5.821667E-1,3.7499997E-1,-4.8221907E-1,-4.4117647E-1,1.5789472E-1,-2.3684211E-1,-5.780933E-1,-5.337423E-1,3.975903E-1,-3.75E-1,9.6226406E-1],"categories":[],"categories_nodes":[],"categories_segments":[],"categories_sizes":[],"default_left":[true,false,true,true,true,true,false,false,true,false,false,true,false,false,true,false,false],"id":4,"left_children":[1,-1,3,5,7,9,-1,-1,11,-1,-1,13,-1,-1,15,-1,-1],"loss_changes":[7.743149E-1,0E0,3.8323975E-1,1.2590027E-1,1.6471062E0,4.2428932E-1,0E0,0E0,7.818775E-1,0E0,0E0,2.5981436E0,0E0,0E0,2.3724995E0,0E0,0E0],"parents":[2147483647,0,0,2,2,3,3,4,4,5,5,8,8,11,11,14,14],"right_children":[2,-1,4,6,8,10,-1,-1,12,-1,-1,14,-1,-1,16,-1,-1],"split_conditions":[1.3063063E-1,4.736842E-2,4.95E-1,1.7180616E-1,3.3737153E-1,2.7739727E-1,-1.7465001E-1,1.125E-1,4.770318E-2,-1.3235295E-1,4.736842E-2,1.0958904E-1,-1.73428E-1,-1.601227E-1,3.3568904E-2,-1.12500004E-1,2.8867924E-1],"split_indices":[8,0,2,7,7,1,0,0,6,0,0,3,0,0,6,0,0],"split_type":[0,0,0,0,0,0,0,0,0,0,0,0,0,0,0,0,0],"sum_hessian":[3.016667E2,1.1111112E0,3.0055557E2,2.6083334E2,3.9722225E1,3.888889E0,2.5694446E2,1.6666667E0,3.8055557E1,2.777778E0,1.1111112E0,1.1666667E1,2.638889E1,8.055556E0,3.6111112E0,1.6666667E0,1.9444445E0],"tree_param":{"num_deleted":"0","num_feature":"11","num_nodes":"17","size_leaf_vector":"0"}},{"base_weights":[-5.7181865E-1,-5.782736E-1,4.8837206E-1,1.5789472E-1,-5.814978E-1,-5.660379E-2,-5.847035E-1,-5.909965E-1,-3.9914164E-1,-5.409836E-1,8.823527E-2,6.315789E-1,-3.75E-1],"categories":[],"categories_nodes":[],"categories_segments":[],"categories_sizes":[],"default_left":[true,true,false,false,true,false,true,false,true,false,true,false,false],"id":5,"left_children":[1,3,-1,-1,5,-1,7,-1,9,-1,11,-1,-1],"loss_changes":[2.3708038E0,8.1285095E-1,0E0,0E0,4.7618866E-1,0E0,1.1528015E-1,0E0,9.4259E-1,0E0,1.1876934E0,0E0,0E0],"parents":[2147483647,0,0,1,1,4,4,6,6,8,8,10,10],"right_children":[2,4,-1,-1,6,-1,8,-1,10,-1,12,-1,-1],"split_conditions":[7.277397E-1,5.3846154E-2,1.4651163E-1,4.736842E-2,2.3972603E-2,-1.6981138E-2,5.1541096E-1,-1.7729896E-1,5.106461E-1,-1.6229509E-1,3.0803573E-1,1.8947369E-1,-1.12500004E-1],"split_indices":[1,10,0,0,3,0,1,0,7,0,0,0,0],"split_type":[0,0,0,0,0,0,0,0,0,0,0,0,0],"sum_hessian":[3.041667E2,3.027778E2,1.388889E0,1.1111112E0,3.016667E2,1.9444445E0,2.9972223E2,2.877778E2,1.1944445E1,9.166667E0,2.777778E0,1.1111112E0,1.6666667E0],"tree_param":{"num_deleted":"0","num_feature":"11","num_nodes":"13","size_leaf_vector":"0"}},{"base_weights":[6.291076E-1,8.902326E-1,3.6455266E-2,8.09004E-1,1.4491743E0,-1.9548696E-1,4.1929692E-1,9.357628E-1,5.634169E-1,7.2354525E-2,1.5025415E0,1.2322325E-1,-4.1019303E-1,8.328426E-1,1.8100859E-1,9.5220655E-1,-1.2305813E-1,4.2675015E-1,1.1585095E0,3.7674892E-1,1.5497913E0,-1.736036E-1,5.255236E-1,-4.5257223E-1,5.6368214E-1,1.244782E0,2.5172502E-1,9.459669E-1,2.3279011E-2,-1.23823866E-1,9.681854E-1,-3.204114E-1,1.2255556E-1,6.912546E-1,1.3275431E-1,-3.1717172E-1,1.3100023E0,-3.586633E-1,5.4128647E-1,1.004534E0,2.1947447E-2,-1.8297112E-1,-5.101972E-1,1.5462615E0,3.8009542E-1,8.155512E-1,-2.611703E-1,4.6896085E-2,1.3138571E0,4.6933854E-1,-4.0039387E-1,8.6516637E-1,1.224426E0,3.7136498E-1,1.1993972E0,-3.519913E-1,4.5105323E-1,3.0091754E-1,1.442517E0,4.676026E-1,-5.497527E-1,1.2091724E0,-3.5089135E-1,6.9710426E-2,1.2455413E0,6.8388915E-1,-3.213392E-1,-3.8433444E-1,6.725275E-1,-5.3787595E-1,1.4922652E-1,5.9767306E-2,5.4359096E-1,7.428208E-2,1.1911557E0,-4.3098593E-1,1.534451E-1,1.00152716E-1,1.1603454E0,-4.4950888E-2,-5.3253174E-1],"categories":[],"categories_nodes":[],"categories_segments":[],"categories_sizes":[],"default_left":[true,true,true,true,true,true,true,true,true,false,true,true,true,true,true,true,true,true,true,false,false,true,true,true,false,true,true,true,true,false,true,false,false,true,true,false,true,true,true,true,true,true,true,false,true,true,true,false,false,true,true,false,false,false,false,false,false,false,false,false,false,false,false,false,false,false,false,false,false,false,false,false,false,false,false,false,false,false,false,false,false],"id":6,"left_children":[1,3,5,7,9,11,13,15,17,-1,19,21,23,25,27,29,31,33,35,-1,-1,37,39,41,-1,43,45,47,49,-1,51,-1,-1,53,55,-1,57,59,61,63,65,67,69,-1,71,73,75,-1,-1,77,79,-1,-1,-1,-1,-1,-1,-1,-1,-1,-1,-1,-1,-1,-1,-1,-1,-1,-1,-1,-1,-1,-1,-1,-1,-1,-1,-1,-1,-1,-1],"loss_changes":[5.6384872E1,1.0314987E1,1.0075279E1,6.420288E0,2.1573486E0,4.892865E0,4.064605E0,2.6537094E0,5.88908E0,0E0,9.927139E-1,3.58436E0,2.009655E0,3.3636255E0,3.4066448E0,2.5884247E0,1.9018714E-1,4.9949846E0,3.562214E0,0E0,0E0,2.5205133E0,3.0336854E0,5.4817677E-1,0E0,1.6893368E0,2.4180627E0,1.536777E0,4.8339334E0,0E0,2.6781769E0,0E0,0E0,5.1131344E0,5.129704E0,0E0,1.2989445E0,2.5575252E0,2.81641E0,1.3708549E0,1.8553896E0,1.7797614E0,6.9102573E-1,0E0,1.5521848E-1,9.903517E-1,4.0059593E-1,0E0,0E0,3.0563598E0,5.935981E-1,0E0,0E0,0E0,0E0,0E0,0E0,0E0,0E0,0E0,0E0,0E0,0E0,0E0,0E0,0E0,0E0,0E0,0E0,0E0,0E0,0E0,0E0,0E0,0E0,0E0,0E0,0E0,0E0,0E0,0E0],"parents":[2147483647,0,0,1,1,2,2,3,3,4,4,5,5,6,6,7,7,8,8,10,10,11,11,12,12,13,13,14,14,15,15,16,16,17,17,18,18,21,21,22,22,23,23,25,25,26,26,27,27,28,28,30,30,33,33,34,34,36,36,37,37,38,38,39,39,40,40,41,41,42,42,44,44,45,45,46,46,49,49,50,50],"right_children":[2,4,6,8,10,12,14,16,18,-1,20,22,24,26,28,30,32,34,36,-1,-1,38,40,42,-1,44,46,48,50,-1,52,-1,-1,54,56,-1,58,60,62,64,66,68,70,-1,72,74,76,-1,-1,78,80,-1,-1,-1,-1,-1,-1,-1,-1,-1,-1,-1,-1,-1,-1,-1,-1,-1,-1,-1,-1,-1,-1,-1,-1,-1,-1,-1,-1,-1,-1],"split_conditions":[3.4615386E-1,3.2685512E-1,2.8424656E-1,2.2307692E-1,1.4788732E-1,4.3846154E-1,1.056338E-1,5.8219177E-1,6.351351E-1,2.1706358E-2,9.265442E-2,1.9520548E-1,7.5446427E-1,4.6923077E-1,7.1786314E-2,1.590106E-2,1.0684474E-1,1.6197184E-1,8.347245E-2,1.1302468E-1,4.6493742E-1,1.9434628E-1,2.3630136E-1,7.762938E-2,1.6910465E-1,4.6746576E-1,2.547724E-1,5.759599E-2,4.2307693E-1,-3.714716E-2,3.64726E-1,-9.612343E-2,3.676667E-2,1.056338E-1,1.4310955E-1,-9.515152E-2,1.056338E-1,2.6501767E-2,3.0357143E-1,9.154929E-2,4.3693694E-1,7.262103E-2,6.7E-1,4.6387848E-1,7.054795E-1,3.5E-2,6.936937E-1,1.4068826E-2,3.9415714E-1,1.7E-1,1.5625E-1,2.5954992E-1,3.673278E-1,1.114095E-1,3.5981917E-1,-1.0559739E-1,1.3531597E-1,9.0275265E-2,4.3275514E-1,1.4028078E-1,-1.6492581E-1,3.6275172E-1,-1.0526741E-1,2.0913128E-2,3.736624E-1,2.0516676E-1,-9.640176E-2,-1.15300335E-1,2.0175825E-1,-1.613628E-1,4.4767957E-2,1.7930193E-2,1.630773E-1,2.2284625E-2,3.573467E-1,-1.2929578E-1,4.603353E-2,3.0045817E-2,3.4810364E-1,-1.3485267E-2,-1.5975952E-1],"split_indices":[10,6,1,10,5,10,5,1,8,0,4,1,0,10,4,6,4,5,4,0,0,6,1,4,0,1,7,4,10,0,1,0,0,5,6,0,5,6,0,5,8,4,2,0,1,2,8,0,0,2,0,0,0,0,0,0,0,0,0,0,0,0,0,0,0,0,0,0,0,0,0,0,0,0,0,0,0,0,0,0,0],"split_type":[0,0,0,0,0,0,0,0,0,0,0,0,0,0,0,0,0,0,0,0,0,0,0,0,0,0,0,0,0,0,0,0,0,0,0,0,0,0,0,0,0,0,0,0,0,0,0,0,0,0,0,0,0,0,0,0,0,0,0,0,0,0,0,0,0,0,0,0,0,0,0,0,0,0,0,0,0,0,0,0,0],"sum_hessian":[3.6355585E2,2.5201492E2,1.1154092E2,2.2217464E2,2.9840298E1,6.976413E1,4.1776787E1,1.4468549E2,7.748914E1,1.2013946E0,2.8638905E1,2.8252352E1,4.151178E1,1.4360046E1,2.741674E1,1.42572E2,2.113485E0,6.441333E1,1.3075809E1,1.5150177E0,2.7123886E1,1.6584433E1,1.1667919E1,4.0293644E1,1.2181333E0,7.734914E0,6.625132E0,3.8324919E0,2.358425E1,1.9874326E0,1.4058458E2,1.0030165E0,1.1104686E0,3.319603E1,3.1217304E1,1.1155611E0,1.1960247E1,1.356995E1,3.014483E0,5.4699793E0,6.19794E0,7.8310266E0,3.246262E1,5.150811E0,2.5841029E0,2.8747852E0,3.750347E0,1.4402357E0,2.392256E0,1.1436093E1,1.2148156E1,1.03392845E2,3.7191727E1,2.1433735E1,1.1762293E1,1.2331498E1,1.8885805E1,1.7679932E0,1.0192254E1,2.2770422E0,1.1292908E1,1.5207458E0,1.4937372E0,1.3854228E0,4.0845566E0,1.7777725E0,4.4201674E0,6.7847996E0,1.0462269E0,3.1331818E1,1.1308007E0,1.3346848E0,1.2494179E0,1.3695989E0,1.5051864E0,2.6326134E0,1.1177335E0,8.199999E0,3.2360945E0,3.6554358E0,8.492721E0],"tree_param":{"num_deleted":"0","num_feature":"11","num_nodes":"81","size_leaf_vector":"0"}},{"base_weights":[5.7401526E-1,6.209136E-1,-8.7149024E-2,7.6859266E-1,4.0484336E-1,-2.1334755E-1,7.658541E-1,6.9581753E-1,1.194384E0,-7.993193E-3,5.192769E-1,4.4173914E-1,-5.487716E-1,1.1380814E0,9.848546E-2,7.255397E-1,3.7748974E-2,1.3253175E0,-4.227765E-1,-1.6511293E-1,7.0743173E-1,5.5828893E-1,-4.9181592E-1,-1.8731587E-1,7.7954084E-1,7.441051E-1,-2.1781364E-1,-4.8701435E-1,4.964978E-1,3.7327126E-1,1.419176E0,6.9343096E-1,-3.873253E-1,-3.831496E-1,1.3169034E0,7.31035E-2,6.255445E-1,-3.8209325E-1,1.4034602E-1,1.2757424E0,-5.4296117E-2,2.0010552E-1,7.8174347E-1,1.4297657E-1,-4.0437102E-1,1.0119424E0,7.285561E-2,-3.334128E-1,9.0441364E-1,1.622279E0,5.9250116E-1,-2.418002E-2,9.9433744E-1,5.5385834E-1,-4.7235686E-1,8.311731E-1,-1.9995975E-1,9.4419277E-1,4.6345052E-1],"categories":[],"categories_nodes":[],"categories_segments":[],"categories_sizes":[],"default_left":[true,true,true,true,true,true,true,true,true,true,true,true,false,false,false,true,true,true,false,true,true,true,false,true,true,true,true,false,true,true,true,true,true,false,false,true,true,false,false,false,false,false,false,false,false,false,false,false,false,false,false,false,false,false,false,false,false,false,false],"id":7,"left_children":[1,3,5,7,9,11,13,15,17,19,21,23,-1,-1,-1,25,27,29,-1,31,33,35,-1,37,39,41,43,-1,45,47,49,51,53,-1,-1,55,57,-1,-1,-1,-1,-1,-1,-1,-1,-1,-1,-1,-1,-1,-1,-1,-1,-1,-1,-1,-1,-1,-1],"loss_changes":[1.1117775E1,1.032399E1,2.801824E0,5.2692795E0,6.496582E0,5.1057777E0,7.267275E-1,3.3079758E0,6.349495E0,3.5801804E0,4.51952E0,1.8564316E0,0E0,0E0,0E0,3.018631E0,2.2697544E0,1.7520027E0,0E0,5.2428694E0,4.31808E0,3.3507957E0,0E0,2.8456113E-1,2.3162122E0,3.123314E0,3.217656E-1,0E0,1.01589E0,1.6709571E0,2.8814507E0,1.2590373E0,1.970604E0,0E0,0E0,3.0236862E0,4.2772865E0,0E0,0E0,0E0,0E0,0E0,0E0,0E0,0E0,0E0,0E0,0E0,0E0,0E0,0E0,0E0,0E0,0E0,0E0,0E0,0E0,0E0,0E0],"parents":[2147483647,0,0,1,1,2,2,3,3,4,4,5,5,6,6,7,7,8,8,9,9,10,10,11,11,15,15,16,16,17,17,19,19,20,20,21,21,23,23,24,24,25,25,26,26,28,28,29,29,30,30,31,31,32,32,35,35,36,36],"right_children":[2,4,6,8,10,12,14,16,18,20,22,24,-1,-1,-1,26,28,30,-1,32,34,36,-1,38,40,42,44,-1,46,48,50,52,54,-1,-1,56,58,-1,-1,-1,-1,-1,-1,-1,-1,-1,-1,-1,-1,-1,-1,-1,-1,-1,-1,-1,-1,-1,-1],"split_conditions":[3.2685512E-1,2.9280823E-1,3.6526948E-1,2.6369864E-1,1.1676647E-1,1.01001665E-1,5.3634363E-1,2.720848E-1,6.2E-1,2.0547944E-1,3.1849313E-1,7.345576E-2,-1.6463149E-1,3.4142444E-1,2.954564E-2,6.95E-1,9.931507E-2,1.19760476E-1,-1.2683295E-1,7.929883E-2,7E-2,5.821918E-2,-1.4754479E-1,2.3214287E-1,5.2753305E-1,1.0479042E-1,8.450705E-2,-1.461043E-1,2.1875E-1,1.971831E-1,1.5017667E-1,6.1769616E-2,2.657856E-1,-1.1494488E-1,3.9507103E-1,1.4071856E-1,4.5558003E-1,-1.1462798E-1,4.210381E-2,3.8272274E-1,-1.6288836E-2,6.0031656E-2,2.3452304E-1,4.289297E-2,-1.21311314E-1,3.0358273E-1,2.1856682E-2,-1.0002384E-1,2.713241E-1,4.8668373E-1,1.7775035E-1,-7.254006E-3,2.9830125E-1,1.6615751E-1,-1.4170706E-1,2.4935195E-1,-5.998793E-2,2.8325784E-1,1.3903517E-1],"split_indices":[6,1,9,1,9,4,7,6,2,3,3,4,0,0,0,2,3,9,0,4,2,3,0,0,7,9,5,0,0,5,6,4,7,0,0,9,7,0,0,0,0,0,0,0,0,0,0,0,0,0,0,0,0,0,0,0,0,0,0],"split_type":[0,0,0,0,0,0,0,0,0,0,0,0,0,0,0,0,0,0,0,0,0,0,0,0,0,0,0,0,0,0,0,0,0,0,0,0,0,0,0,0,0,0,0,0,0,0,0,0,0,0,0,0,0,0,0,0,0,0,0],"sum_hessian":[3.5580585E2,3.32296E2,2.3509861E1,1.9586775E2,1.3642822E2,2.1133175E1,2.3766854E0,1.6952684E2,2.6340914E1,2.9810915E1,1.0661731E2,7.049152E0,1.4084023E1,1.0729288E0,1.3037566E0,1.6210283E2,7.4240203E0,2.4534908E1,1.8060058E0,2.507354E1,4.737375E0,1.0308761E2,3.5297008E0,2.6184864E0,4.4306655E0,1.591813E2,2.9215207E0,3.4341164E0,3.989904E0,2.6483665E0,2.1886541E1,4.7193174E0,2.0354223E1,1.8314825E0,2.9058921E0,1.2804211E1,9.0283394E1,1.5380676E0,1.0804188E0,2.4454532E0,1.9852121E0,1.0709518E1,1.4847179E2,1.0753899E0,1.8461308E0,1.1734716E0,2.8164325E0,1.2961342E0,1.3522321E0,1.6797262E1,5.0892797E0,1.6659507E0,3.0533671E0,1.229688E0,1.9124535E1,2.8495355E0,9.954676E0,2.8814388E1,6.1469006E1],"tree_param":{"num_deleted":"0","num_feature":"11","num_nodes":"59","size_leaf_vector":"0"}},{"base_weights":[-1.16071776E-1,-2.8607282E-1,6.314608E-1,1.8081802E-1,-4.0603045E-1,1.5807547E-1,8.414212E-1,-3.471736E-1,6.049262E-1,-5.332244E-1,-2.7236587E-1,9.37342E-1,-1.7226665E-1,9.933262E-1,2.894099E-1,-4.6723908E-1,6.859894E-1,2.3414342E-1,1.1213449E0,-7.916805E-2,-5.4289997E-1,-3.062655E-1,6.054074E-1,1.2770947E0,2.4525815E-1,-4.996097E-1,1.192118E-1,1.1246663E0,1.3181357E-1,-2.1331456E-1,9.8661447E-1,3.5413092E-1,-5.600124E-1,-2.6107047E-2,8.5238063E-1,1.7519042E0,6.10619E-1,-3.4959555E-1,1.19837284E-1,1.1326044E0,-3.2574236E-1,5.173993E-1,-4.3600833E-1,1.1975389E0,1.6584912E-2,-4.2283893E-1,8.4482664E-1,-4.854184E-1,2.603365E-1,1.5381883E0,-3.0597508E-1,3.8722387E-1,-3.9232817E-1,1.4365838E0,-6.515938E-2,9.696382E-1,-3.7725326E-1,-2.7909833E-1,-5.6028664E-1,-2.5097322E-1,1.0689703E0,-9.808965E-2,1.0535622E0,5.323623E-1,1.4186049E0],"categories":[],"categories_nodes":[],"categories_segments":[],"categories_sizes":[],"default_left":[true,true,true,true,true,true,true,true,true,true,true,true,true,true,true,true,false,true,true,false,false,true,true,false,false,false,true,true,true,true,true,false,false,true,true,false,true,true,true,false,false,true,false,true,false,false,false,false,false,false,false,false,false,false,false,false,false,false,false,false,false,false,false,false,false],"id":8,"left_children":[1,3,5,7,9,11,13,15,17,19,21,23,25,27,29,31,-1,33,35,-1,-1,37,39,-1,-1,-1,41,43,45,47,49,-1,-1,51,53,-1,55,57,59,-1,-1,61,-1,63,-1,-1,-1,-1,-1,-1,-1,-1,-1,-1,-1,-1,-1,-1,-1,-1,-1,-1,-1,-1,-1],"loss_changes":[3.6710556E1,1.322847E1,5.1915493E0,1.1116095E1,3.0370388E0,4.71564E0,2.805027E0,3.0905366E0,4.97894E0,3.7379074E-1,2.96201E0,9.6172714E-1,1.3256141E0,3.0777073E0,3.4946012E0,1.7680874E0,0E0,2.78927E0,2.5294752E0,0E0,0E0,1.7129097E0,2.2371185E0,0E0,0E0,0E0,1.9558742E0,1.9670334E0,2.2967272E0,9.3400717E-1,3.3961828E0,0E0,0E0,2.1307924E0,2.840462E0,0E0,3.100224E0,1.0676308E0,3.4705498E0,0E0,0E0,1.7583288E0,0E0,2.6376953E0,0E0,0E0,0E0,0E0,0E0,0E0,0E0,0E0,0E0,0E0,0E0,0E0,0E0,0E0,0E0,0E0,0E0,0E0,0E0,0E0,0E0],"parents":[2147483647,0,0,1,1,2,2,3,3,4,4,5,5,6,6,7,7,8,8,9,9,10,10,11,11,12,12,13,13,14,14,15,15,17,17,18,18,21,21,22,22,26,26,27,27,28,28,29,29,30,30,33,33,34,34,36,36,37,37,38,38,41,41,43,43],"right_children":[2,4,6,8,10,12,14,16,18,20,22,24,26,28,30,32,-1,34,36,-1,-1,38,40,-1,-1,-1,42,44,46,48,50,-1,-1,52,54,-1,56,58,60,-1,-1,62,-1,64,-1,-1,-1,-1,-1,-1,-1,-1,-1,-1,-1,-1,-1,-1,-1,-1,-1,-1,-1,-1,-1],"split_conditions":[5E-1,1.7465754E-1,2.75E-1,3.1538463E-1,2.423077E-1,6.696428E-2,1.360424E-1,6.25E-1,4.3303573E-1,1.8150684E-1,6.55E-1,6.1769616E-2,8.561644E-2,5.2232146E-1,2.4381626E-1,3.767123E-2,2.0579682E-1,5.900901E-1,4.75E-1,-2.3750417E-2,-1.6286999E-1,4.6923077E-1,6.7E-1,3.8312843E-1,7.357745E-2,-1.4988291E-1,1.130137E-1,1.7863104E-1,6.0267854E-1,1.0616438E-1,6.3076925E-1,1.0623928E-1,-1.6800372E-1,7.876712E-2,1.5901059E-1,5.255713E-1,1.4726028E-1,1.7137809E-1,4.0625E-1,3.397813E-1,-9.772272E-2,3.5958904E-1,-1.3080251E-1,7.70548E-2,4.975474E-3,-1.2685168E-1,2.53448E-1,-1.4562553E-1,7.810095E-2,4.614565E-1,-9.1792524E-2,1.16167165E-1,-1.1769845E-1,4.3097514E-1,-1.9547815E-2,2.9089147E-1,-1.1317598E-1,-8.3729506E-2,-1.6808599E-1,-7.529197E-2,3.206911E-1,-2.9426897E-2,3.1606865E-1,1.597087E-1,4.2558149E-1],"split_indices":[10,1,2,10,10,0,6,0,0,1,2,4,3,0,6,3,0,8,2,0,0,10,2,0,0,0,3,4,0,3,10,0,0,3,6,0,1,6,0,0,0,1,0,3,0,0,0,0,0,0,0,0,0,0,0,0,0,0,0,0,0,0,0,0,0],"split_type":[0,0,0,0,0,0,0,0,0,0,0,0,0,0,0,0,0,0,0,0,0,0,0,0,0,0,0,0,0,0,0,0,0,0,0,0,0,0,0,0,0,0,0,0,0,0,0,0,0,0,0,0,0,0,0,0,0,0,0,0,0,0,0,0,0],"sum_hessian":[2.8645303E2,2.338818E2,5.2571217E1,4.770404E1,1.8617776E2,1.669127E1,3.5879944E1,2.1330336E1,2.6373707E1,9.386625E1,9.2311516E1,4.422127E0,1.2269144E1,2.7510117E1,8.36983E0,1.9600311E1,1.7300239E0,1.619749E1,1.0176215E1,2.1500597E0,9.1716194E1,8.950589E1,2.805631E0,2.3990927E0,2.0230339E0,5.4427004E0,6.826444E0,2.3605875E1,3.9042397E0,5.266456E0,3.1033738E0,1.7032659E0,1.7897047E1,1.2073046E1,4.1244454E0,3.466337E0,6.709878E0,8.14072E1,8.0986805E0,1.6532476E0,1.1523833E0,4.015072E0,2.8113723E0,2.2073488E1,1.5323868E0,2.4248888E0,1.4793509E0,3.329103E0,1.9373529E0,2.0420043E0,1.0613694E0,5.6447825E0,6.4282637E0,2.1743398E0,1.9501054E0,4.9348717E0,1.7750065E0,6.273932E1,1.8667889E1,6.352457E0,1.7462232E0,2.249643E0,1.7654289E0,6.356189E0,1.57173E1],"tree_param":{"num_deleted":"0","num_feature":"11","num_nodes":"65","size_leaf_vector":"0"}},{"base_weights":[-4.431539E-1,-4.8218554E-1,1.7184691E-1,-2.2216636E-1,-5.142881E-1,4.9469993E-1,-1.7472067E-1,1.4672329E-1,-4.8929617E-1,2.0256644E-1,-5.185445E-1,-3.3304992E-1,6.8327004E-1,-3.8145667E-1,6.854518E-1,7.8856385E-1,-6.9204025E-2,-5.4585624E-1,1.4288312E-1,-1.8148428E-1,-5.2627945E-1,-8.9135185E-2,9.9593914E-1,1.622596E-1,-4.975161E-1,1.2552767E-1,1.1188233E0,5.690834E-1,-3.850743E-1,5.3207195E-1,-4.6805134E-1,-5.303292E-1,-1.31812E-1,1.4265883E0,2.3086064E-1,-2.9767707E-1,9.8066574E-1,1.6294555E-1,-5.0073594E-1,-5.415914E-1,-3.437901E-1,-3.3662036E-1,1.4578728E-1,6.356519E-1,-3.004062E-1],"categories":[],"categories_nodes":[],"categories_segments":[],"categories_sizes":[],"default_left":[true,true,true,true,true,true,true,true,true,false,true,false,true,true,false,true,true,false,false,true,true,false,true,false,false,false,false,true,true,false,false,true,true,false,true,false,false,false,false,false,false,false,false,false,false],"id":9,"left_children":[1,3,5,7,9,11,13,15,17,-1,19,-1,21,23,-1,25,27,-1,-1,29,31,-1,33,-1,-1,-1,-1,35,37,-1,-1,39,41,-1,43,-1,-1,-1,-1,-1,-1,-1,-1,-1,-1],"loss_changes":[6.367359E0,1.9428787E0,1.9171147E0,2.9140553E0,7.720299E-1,1.5904524E0,1.7961097E0,1.84012E0,6.8440866E-1,0E0,4.7177887E-1,0E0,1.8853786E0,5.6032014E-1,0E0,5.874014E-1,2.3481445E0,0E0,0E0,1.5592844E0,2.6906204E-1,0E0,1.442491E0,0E0,0E0,0E0,0E0,1.6829797E0,5.6714475E-1,0E0,0E0,2.5434494E-1,2.4732704E-1,0E0,8.640394E-1,0E0,0E0,0E0,0E0,0E0,0E0,0E0,0E0,0E0,0E0],"parents":[2147483647,0,0,1,1,2,2,3,3,4,4,5,5,6,6,7,7,8,8,10,10,12,12,13,13,15,15,16,16,19,19,20,20,22,22,27,27,28,28,31,31,32,32,34,34],"right_children":[2,4,6,8,10,12,14,16,18,-1,20,-1,22,24,-1,26,28,-1,-1,30,32,-1,34,-1,-1,-1,-1,36,38,-1,-1,40,42,-1,44,-1,-1,-1,-1,-1,-1,-1,-1,-1,-1],"split_conditions":[4.9486303E-1,3.0035336E-2,4.5264316E-1,2.5446427E-1,1.3063063E-1,2.6651984E-1,6.152717E-1,1.2367491E-2,3.0136985E-1,6.0769934E-2,1.03846155E-1,-9.991498E-2,5.4280823E-1,5.085616E-1,2.0563555E-1,3.082192E-1,5E-3,-1.6375688E-1,4.2864937E-2,5.018355E-1,4.8287672E-1,-2.6740557E-2,9.010601E-2,4.867788E-2,-1.4925483E-1,3.76583E-2,3.35647E-1,3.6380324E-1,5.136986E-2,1.596216E-1,-1.4041542E-1,6.1160713E-1,5.5E-2,4.2797652E-1,2.1875E-1,-8.930312E-2,2.9419973E-1,4.888367E-2,-1.5022078E-1,-1.6247743E-1,-1.0313704E-1,-1.00986116E-1,4.3736186E-2,1.9069557E-1,-9.012186E-2],"split_indices":[1,6,7,0,8,7,7,6,3,0,10,0,1,1,0,1,2,0,0,7,1,0,6,0,0,0,0,7,3,0,0,0,2,0,0,0,0,0,0,0,0,0,0,0,0],"split_type":[0,0,0,0,0,0,0,0,0,0,0,0,0,0,0,0,0,0,0,0,0,0,0,0,0,0,0,0,0,0,0,0,0,0,0,0,0,0,0,0,0,0,0,0,0],"sum_hessian":[2.6080502E2,2.4544365E2,1.5361374E1,2.7843344E1,2.1760031E2,7.731495E0,7.629879E0,1.1883589E1,1.5959755E1,1.0093832E0,2.1659093E2,1.2923579E0,6.439137E0,6.6001234E0,1.0297555E0,2.3238862E0,9.559703E0,1.4774456E1,1.1852987E0,5.4076514E0,2.1118327E2,2.0614746E0,4.3776627E0,1.0909863E0,5.509137E0,1.231529E0,1.0923572E0,2.8993244E0,6.6603785E0,1.303989E0,4.103662E0,2.0869627E2,2.4869986E0,2.2477908E0,2.1298716E0,1.0225865E0,1.8767381E0,1.089478E0,5.5709004E0,1.9501875E2,1.3677523E1,1.3087853E0,1.1782134E0,1.0973091E0,1.0325625E0],"tree_param":{"num_deleted":"0","num_feature":"11","num_nodes":"45","size_leaf_vector":"0"}},{"base_weights":[-5.3089267E-1,-5.489516E-1,-1.1645291E-1,-7.213334E-2,-5.565209E-1,-4.9435207E-1,2.7854496E-1,3.937582E-1,-4.1511095E-1,-5.603005E-1,-2.9498902E-1,-3.7098825E-1,5.955635E-1,2.0085035E-1,-4.505664E-1,-8.630422E-2,1.2133777E0,-3.1268603E-1,2.0250407E-1],"categories":[],"categories_nodes":[],"categories_segments":[],"categories_sizes":[],"default_left":[true,true,true,true,true,false,true,false,false,false,true,false,true,false,false,true,false,false,false],"id":10,"left_children":[1,3,5,7,9,-1,11,-1,-1,-1,13,-1,15,-1,-1,17,-1,-1,-1],"loss_changes":[1.8402328E0,8.3878326E-1,1.9128865E0,9.551129E-1,7.15332E-2,0E0,1.5499812E0,0E0,0E0,0E0,5.1669014E-1,0E0,2.0936067E0,0E0,0E0,2.710913E-1,0E0,0E0,0E0],"parents":[2147483647,0,0,1,1,2,2,3,3,4,4,6,6,10,10,12,12,15,15],"right_children":[2,4,6,8,10,-1,12,-1,-1,-1,14,-1,16,-1,-1,18,-1,-1,-1],"split_conditions":[6.5384614E-1,2.2072072E-1,2.1257484E-1,1.1936561E-1,6.230769E-1,-1.4830562E-1,6.696428E-2,1.18127465E-1,-1.2453329E-1,-1.6809016E-1,4.279279E-1,-1.1129648E-1,5.45045E-1,6.0255107E-2,-1.3516992E-1,3.4375E-1,3.640133E-1,-9.380581E-2,6.0751222E-2],"split_indices":[10,8,9,4,10,0,0,0,0,0,8,0,8,0,0,0,0,0,0],"split_type":[0,0,0,0,0,0,0,0,0,0,0,0,0,0,0,0,0,0,0],"sum_hessian":[2.5341911E2,2.425266E2,1.0892509E1,3.9543633E0,2.3857224E2,5.438194E0,5.4543157E0,1.6139538E0,2.3404095E0,2.340474E2,4.524838E0,1.7331191E0,3.7211964E0,1.0111647E0,3.5136733E0,2.1778545E0,1.5433419E0,1.174527E0,1.0033276E0],"tree_param":{"num_deleted":"0","num_feature":"11","num_nodes":"19","size_leaf_vector":"0"}},{"base_weights":[-5.4987633E-1,-5.573711E-1,3.9678964E-1,1.624885E-1,-5.611795E-1,-5.6814384E-1,-3.8925794E-1,-5.266413E-1,7.65351E-2,5.247968E-1,-3.568446E-1],"categories":[],"categories_nodes":[],"categories_segments":[],"categories_sizes":[],"default_left":[true,true,false,false,true,false,true,false,true,false,false],"id":11,"left_children":[1,3,-1,-1,5,-1,7,-1,9,-1,-1],"loss_changes":[2.0179367E0,7.811508E-1,0E0,0E0,7.885742E-2,0E0,8.678025E-1,0E0,9.290632E-1,0E0,0E0],"parents":[2147483647,0,0,1,1,4,4,6,6,8,8],"right_children":[2,4,-1,-1,6,-1,8,-1,10,-1,-1],"split_conditions":[7.277397E-1,5.3846154E-2,1.190369E-1,4.8746552E-2,5.1541096E-1,-1.7044316E-1,5.106461E-1,-1.579924E-1,3.0803573E-1,1.5743904E-1,-1.07053384E-1],"split_indices":[1,10,0,0,1,0,7,0,0,0,0],"split_type":[0,0,0,0,0,0,0,0,0,0,0],"sum_hessian":[2.5224509E2,2.5067175E2,1.5733416E0,1.0999312E0,2.4957181E2,2.3764061E2,1.1931197E1,9.112791E0,2.8184063E0,1.2817264E0,1.53668E0],"tree_param":{"num_deleted":"0","num_feature":"11","num_nodes":"11","size_leaf_vector":"0"}},{"base_weights":[4.670843E-1,6.385741E-1,2.4854058E-2,8.703882E-1,5.167534E-1,2.8758276E-1,-2.5631225E-1,2.7224994E-1,9.1988146E-1,-2.4191612E-1,5.421538E-1,5.4110813E-1,-4.7229923E-2,-4.304692E-1,-3.6587264E-2,6.1937225E-1,-2.848725E-1,9.7286814E-1,2.3688853E-1,-5.0740623E-1,5.063061E-1,4.9204183E-1,9.227017E-1,6.65161E-1,-1.8686892E-3,-4.0823933E-1,4.244375E-1,-4.590333E-1,1.9707675E-1,2.3671772E-1,-3.6450836E-1,2.9859822E-3,8.241648E-1,-4.5736974E-1,7.253812E-2,8.2665664E-1,1.1625407E0,6.974727E-1,-1.7274962E-1,6.121892E-1,2.6622984E-1,1.0648532E0,1.8446038E-2,8.852765E-1,2.3575322E-1,-3.4385082E-1,8.6177707E-1,-5.258098E-1,-3.3406675E-2,-6.593361E-2,9.0841424E-1,-4.8854828E-1,1.5521997E-1,4.032675E-1,-4.2142203E-1,-5.241969E-1,5.184157E-1,1.055064E0,2.8126967E-1,4.8853946E-1,1.0153359E0,5.9325343E-1,1.2335615E0,-5.169707E-1,3.7445012E-1,7.747088E-1,4.3642232E-1,1.0210946E0,1.8164824E-1,1.1093262E0,3.3111453E-1,4.6108398E-1,-3.9664876E-1,6.865921E-1,1.3387172E0,5.076129E-1,-4.22732E-1,-4.880084E-1,1.7265303E-1,-2.9884252E-1,1.2973338E-1,-3.109676E-1,6.132115E-1,1.0677108E0,1.3413525E-1,-2.522927E-1,-5.502798E-1,-1.9746165E-1,6.12323E-1],"categories":[],"categories_nodes":[],"categories_segments":[],"categories_sizes":[],"default_left":[true,true,true,true,true,true,true,true,true,true,true,true,true,true,true,true,true,true,true,false,false,true,true,true,true,true,true,true,false,true,true,false,true,false,false,true,true,false,true,true,true,true,true,true,true,true,false,false,true,true,true,true,false,true,false,false,false,false,false,false,false,false,false,false,false,false,false,false,false,false,false,false,false,false,false,false,false,false,false,false,false,false,false,false,false,false,false,false,false],"id":12,"left_children":[1,3,5,7,9,11,13,15,17,19,21,23,25,27,29,31,33,35,37,-1,-1,39,41,43,45,47,49,51,-1,53,55,-1,57,-1,-1,59,61,-1,63,65,67,69,71,73,75,77,-1,-1,79,81,83,85,-1,87,-1,-1,-1,-1,-1,-1,-1,-1,-1,-1,-1,-1,-1,-1,-1,-1,-1,-1,-1,-1,-1,-1,-1,-1,-1,-1,-1,-1,-1,-1,-1,-1,-1,-1,-1],"loss_changes":[3.0039978E1,7.6136475E0,8.331095E0,2.6181793E0,3.7855072E0,4.970605E0,2.0707407E0,1.8832372E0,2.993103E0,1.6146021E0,3.0510483E0,2.2397623E0,4.604486E0,6.340246E-1,2.3448997E0,7.23711E-1,2.84285E-1,1.3224487E0,1.5798289E0,0E0,0E0,4.3015137E0,2.582615E0,2.348549E0,2.4163115E0,6.5452385E-1,2.853937E0,6.0710144E-1,0E0,1.7430742E0,1.9424859E0,0E0,2.4407148E-1,0E0,0E0,2.691082E0,6.178436E-1,0E0,1.1156439E0,2.708065E0,3.5762587E0,2.0298195E-1,8.7517005E-1,6.5958405E-1,2.0999224E0,5.203277E-1,0E0,0E0,2.4269542E-1,1.3189986E0,5.959282E-1,2.7247095E-1,0E0,1.6234528E0,0E0,0E0,0E0,0E0,0E0,0E0,0E0,0E0,0E0,0E0,0E0,0E0,0E0,0E0,0E0,0E0,0E0,0E0,0E0,0E0,0E0,0E0,0E0,0E0,0E0,0E0,0E0,0E0,0E0,0E0,0E0,0E0,0E0,0E0,0E0],"parents":[2147483647,0,0,1,1,2,2,3,3,4,4,5,5,6,6,7,7,8,8,9,9,10,10,11,11,12,12,13,13,14,14,15,15,16,16,17,17,18,18,21,21,22,22,23,23,24,24,25,25,26,26,27,27,29,29,30,30,32,32,35,35,36,36,38,38,39,39,40,40,41,41,42,42,43,43,44,44,45,45,48,48,49,49,50,50,51,51,53,53],"right_children":[2,4,6,8,10,12,14,16,18,20,22,24,26,28,30,32,34,36,38,-1,-1,40,42,44,46,48,50,52,-1,54,56,-1,58,-1,-1,60,62,-1,64,66,68,70,72,74,76,78,-1,-1,80,82,84,86,-1,88,-1,-1,-1,-1,-1,-1,-1,-1,-1,-1,-1,-1,-1,-1,-1,-1,-1,-1,-1,-1,-1,-1,-1,-1,-1,-1,-1,-1,-1,-1,-1,-1,-1,-1,-1],"split_conditions":[3.4615386E-1,1.3473055E-1,1.8263474E-1,9.098497E-2,9.931507E-2,4.6923077E-1,1.1101836E-1,4.849486E-1,2.0890412E-1,2.846154E-1,1.609589E-1,4.8630136E-1,3.0479452E-1,4.0753424E-1,4.3846154E-1,6.5108515E-2,1.7692308E-1,5.121145E-1,1.7435898E-1,-1.5222187E-1,1.5189184E-1,2.2307692E-1,8.208517E-1,1.16026714E-1,1.5E-1,1.6467066E-1,5.5E-2,7.1585906E-1,5.9123028E-2,5.990991E-1,2.6027396E-1,8.957947E-4,8.430718E-2,-1.3721094E-1,2.1761438E-2,3.0479452E-1,3E-2,2.0924182E-1,3.390411E-1,4.90991E-1,2.927928E-1,4.1780823E-1,2.739726E-1,3.9499998E-1,4.3846154E-1,7.054795E-1,2.5853312E-1,-1.5774295E-1,5.153847E-1,1.0273972E-1,2.7973568E-1,7.4290484E-2,4.6565995E-2,1.19718306E-1,-1.2642662E-1,-1.5725908E-1,1.5552472E-1,3.165192E-1,8.43809E-2,1.4656185E-1,3.0460078E-1,1.7797604E-1,3.7006846E-1,-1.5509121E-1,1.1233504E-1,2.3241265E-1,1.309267E-1,3.063284E-1,5.4494474E-2,3.3279788E-1,9.933437E-2,1.383252E-1,-1.1899463E-1,2.0597763E-1,4.0161517E-1,1.5228388E-1,-1.2681961E-1,-1.4640252E-1,5.179591E-2,-8.965276E-2,3.8920015E-2,-9.3290284E-2,1.8396346E-1,3.2031325E-1,4.0240575E-2,-7.568781E-2,-1.6508394E-1,-5.9238497E-2,1.836969E-1],"split_indices":[10,9,9,4,1,10,4,7,3,10,3,1,1,1,10,4,10,7,10,0,0,10,7,4,2,9,2,7,0,8,3,0,4,0,0,1,2,0,3,8,8,1,1,2,10,1,0,0,10,3,7,4,0,5,0,0,0,0,0,0,0,0,0,0,0,0,0,0,0,0,0,0,0,0,0,0,0,0,0,0,0,0,0,0,0,0,0,0,0],"split_type":[0,0,0,0,0,0,0,0,0,0,0,0,0,0,0,0,0,0,0,0,0,0,0,0,0,0,0,0,0,0,0,0,0,0,0,0,0,0,0,0,0,0,0,0,0,0,0,0,0,0,0,0,0,0,0,0,0,0,0,0,0,0,0,0,0,0,0,0,0,0,0,0,0,0,0,0,0,0,0,0,0,0,0,0,0,0,0,0,0],"sum_hessian":[3.9531647E2,2.8453452E2,1.1078195E2,9.590019E1,1.8863432E2,5.725689E1,5.3525063E1,7.8256807E0,8.807451E1,5.8347807E0,1.8279955E2,3.2233234E1,2.5023655E1,2.9323633E1,2.4201427E1,4.752709E0,3.0729713E0,8.1339745E1,6.734769E0,4.5442166E0,1.2905641E0,1.6355501E2,1.9244541E1,2.6055382E1,6.1778526E0,1.4250752E1,1.0772903E1,2.830385E1,1.0197845E0,1.3351653E1,1.0849774E1,1.4382957E0,3.3144133E0,1.8840134E0,1.188958E0,4.89581E1,3.2381645E1,2.8394856E0,3.8952832E0,1.0563758E2,5.7917416E1,1.647675E1,2.7677922E0,1.6523682E1,9.5317E0,4.8566155E0,1.3212371E0,1.0541505E1,3.7092474E0,5.7801514E0,4.992752E0,2.7201462E1,1.1023874E0,1.0964278E1,2.3873744E0,9.532067E0,1.317707E0,1.6635044E0,1.650909E0,1.882055E1,3.013755E1,4.629092E0,2.7752552E1,2.4250355E0,1.4702477E0,5.3116634E1,5.252095E1,4.720056E0,5.319736E1,1.505251E1,1.4242396E0,1.2858399E0,1.4819522E0,1.32375555E1,3.2861254E0,6.908573E0,2.6231265E0,3.8400245E0,1.0165911E0,1.0953121E0,2.6139352E0,4.6460032E0,1.1341481E0,3.8265266E0,1.1662257E0,6.688922E0,2.051254E1,2.844875E0,8.119403E0],"tree_param":{"num_deleted":"0","num_feature":"11","num_nodes":"89","size_leaf_vector":"0"}},{"base_weights":[4.5234084E-1,2.6186517E-1,5.556405E-1,3.19329E-1,-3.591473E-1,5.912545E-1,-3.2358598E-2,6.5937534E-2,4.613693E-1,-4.2795222E-2,-5.010188E-1,-4.5480275E-1,6.020039E-1,-2.827446E-1,8.578896E-1,-1.0945207E-1,6.8690455E-1,5.2796316E-1,-5.5624858E-2,4.3922815E-1,-3.9778152E-1,6.129023E-1,-4.0412462E-1,4.283782E-1,-4.7771224E-1,6.1699396E-1,-1.8366721E-1,1.0015671E0,-3.9849246E-1,-2.658773E-1,5.7392746E-1,-2.7437112E-1,5.19652E-1,1.3664581E-1,6.275362E-1,5.214683E-1,1.2450042E-1,-5.65481E-1,1.603348E-1,8.400211E-1,1.0023586E-1,-3.1942762E-3,-5.5054456E-1,1.9638136E-1,1.2548268E0,-4.4201598E-1,1.4635922E-1,1.0729676E0,4.60685E-1,1.5452076E-1,-4.902509E-1,1.3700567E-1,6.668374E-1,-4.427603E-1,5.0166285E-1,4.5549616E-1,6.798223E-1],"categories":[],"categories_nodes":[],"categories_segments":[],"categories_sizes":[],"default_left":[true,true,true,true,true,true,true,true,true,true,false,false,true,true,false,true,true,true,true,false,false,true,false,true,true,true,true,true,false,true,true,true,true,true,true,false,false,false,false,false,false,false,false,false,false,false,false,false,false,false,false,false,false,false,false,false,false],"id":13,"left_children":[1,3,5,7,9,11,13,15,17,19,-1,-1,21,23,-1,25,27,29,31,-1,-1,33,-1,35,37,39,41,43,-1,45,47,49,51,53,55,-1,-1,-1,-1,-1,-1,-1,-1,-1,-1,-1,-1,-1,-1,-1,-1,-1,-1,-1,-1,-1,-1],"loss_changes":[7.4665604E0,5.0366535E0,5.2531967E0,4.5323687E0,5.239701E-1,2.924347E0,3.635669E0,5.1617723E0,2.8204632E0,1.0056162E0,0E0,0E0,2.8108597E0,1.9561257E0,0E0,2.1232355E0,3.959106E0,2.776596E0,1.4205494E0,0E0,0E0,1.5287018E0,0E0,2.6885092E-2,6.7236185E-1,3.4050095E-1,2.2888575E0,1.4594736E0,0E0,4.0011024E-1,3.3651714E0,8.176004E-1,8.567059E-2,1.952965E0,1.7094498E0,0E0,0E0,0E0,0E0,0E0,0E0,0E0,0E0,0E0,0E0,0E0,0E0,0E0,0E0,0E0,0E0,0E0,0E0,0E0,0E0,0E0,0E0],"parents":[2147483647,0,0,1,1,2,2,3,3,4,4,5,5,6,6,7,7,8,8,9,9,12,12,13,13,15,15,16,16,17,17,18,18,21,21,23,23,24,24,25,25,26,26,27,27,29,29,30,30,31,31,32,32,33,33,34,34],"right_children":[2,4,6,8,10,12,14,16,18,20,-1,-1,22,24,-1,26,28,30,32,-1,-1,34,-1,36,38,40,42,44,-1,46,48,50,52,54,56,-1,-1,-1,-1,-1,-1,-1,-1,-1,-1,-1,-1,-1,-1,-1,-1,-1,-1,-1,-1,-1,-1],"split_conditions":[2.423077E-1,3.2862192E-1,2.8938356E-1,1.4670658E-1,2.887324E-1,5.3003533E-3,5.171233E-1,2.385159E-1,3.7842464E-1,1.6153847E-1,-1.5030566E-1,-1.3644083E-1,6.181507E-1,1.7857143E-1,2.573669E-1,1.541096E-1,3.3482143E-1,1.6517857E-1,1.0616438E-1,1.3176845E-1,-1.1933446E-1,8.482143E-2,-1.2123739E-1,3.390411E-1,7.0000005E-1,9.931507E-2,1.360424E-1,7.5E-2,-1.1954774E-1,2.2999999E-1,9E-2,4.3693694E-1,4.5376712E-1,8.333333E-1,1.609589E-1,1.564405E-1,3.735013E-2,-1.6964431E-1,4.810044E-2,2.5200632E-1,3.0070757E-2,-9.582829E-4,-1.6516337E-1,5.891441E-2,3.7644807E-1,-1.326048E-1,4.390777E-2,3.218903E-1,1.3820551E-1,4.635623E-2,-1.4707527E-1,4.11017E-2,2.0005123E-1,-1.3282809E-1,1.5049887E-1,1.3664885E-1,2.0394671E-1],"split_indices":[10,6,3,9,5,6,3,6,1,10,0,0,1,0,0,1,0,0,3,0,0,0,0,3,10,3,6,2,0,2,2,8,1,8,1,0,0,0,0,0,0,0,0,0,0,0,0,0,0,0,0,0,0,0,0,0,0],"split_type":[0,0,0,0,0,0,0,0,0,0,0,0,0,0,0,0,0,0,0,0,0,0,0,0,0,0,0,0,0,0,0,0,0,0,0,0,0,0,0,0,0,0,0,0,0,0,0,0,0,0,0,0,0,0,0,0,0],"sum_hessian":[3.8586887E2,1.3692534E2,2.4894351E2,1.2577305E2,1.1152294E1,2.3472136E2,1.4222157E1,4.570402E1,8.006902E1,3.8558893E0,7.296405E0,1.9672982E0,2.3275406E2,1.1632785E1,2.589371E0,3.6280483E1,9.423536E0,7.091347E1,9.155558E0,1.5346848E0,2.3212044E0,2.3064651E2,2.1075473E0,2.245478E0,9.387307E0,2.685009E0,3.3595474E1,7.365478E0,2.058058E0,3.6193843E0,6.729408E1,7.0122466E0,2.1433105E0,7.183949E0,2.2346257E2,1.1707755E0,1.0747025E0,8.352133E0,1.0351748E0,1.4385761E0,1.2464329E0,2.3194454E1,1.0401022E1,2.1871886E0,5.1782894E0,2.485256E0,1.1341283E0,1.0878671E1,5.6415413E1,2.442975E0,4.5692716E0,1.131784E0,1.0115267E0,2.694259E0,4.48969E0,5.434843E1,1.6911414E2],"tree_param":{"num_deleted":"0","num_feature":"11","num_nodes":"57","size_leaf_vector":"0"}},{"base_weights":[-1.0869318E-1,-2.78617E-1,4.8753747E-1,1.438513E-1,-4.0129775E-1,-1.0601681E-1,7.408709E-1,-3.084481E-1,4.576649E-1,-4.2567772E-1,1.6282238E-1,3.7063497E-1,-3.8784045E-1,8.021475E-1,1.8170337E-1,1.1429511E-1,-5.3633726E-1,-7.37181E-2,7.994126E-1,-4.4000545E-1,5.1165532E-2,9.9211985E-1,-4.5693183E-1,7.943292E-1,-6.386973E-2,3.7040314E-1,-5.3982246E-1,4.714359E-1,9.5853114E-1,-3.717217E-1,4.8152018E-1,3.9715394E-1,-3.9512506E-1,5.07536E-1,-3.2939646E-1,7.477562E-2,9.3499196E-1,-2.228325E-1,-4.6749288E-1,-2.3497039E-1,6.2644404E-1,1.0233866E0,1.2874961E-1,-4.2784214E-1,4.8062474E-1,8.552667E-1,5.642482E-3,1.0060997E0,6.527817E-2,7.724952E-1,1.4123667E-2,-8.688696E-2,7.16207E-1,-3.4272784E-1,1.0535828E0,-5.120928E-1,1.7337838E-1,5.3870636E-1,-3.6243042E-1,1.1639433E0,5.7702106E-1,-5.257682E-1,2.7350652E-1,-3.7986732E-1,-5.242137E-1,-4.1001132E-1,1.6317685E-1,1.1415689E0,-6.362365E-2,3.3916575E-1,-4.5172197E-1,1.0559996E0,8.557358E-2],"categories":[],"categories_nodes":[],"categories_segments":[],"categories_sizes":[],"default_left":[true,true,true,true,true,true,true,true,true,true,true,true,true,true,true,true,false,true,true,true,true,false,false,true,true,false,false,true,true,false,true,true,false,true,true,true,true,true,true,true,false,false,false,false,false,true,true,true,false,false,false,false,false,false,false,false,false,false,false,false,false,false,false,false,false,false,false,false,false,false,false,false,false],"id":14,"left_children":[1,3,5,7,9,11,13,15,17,19,21,23,25,27,29,31,-1,33,35,37,39,-1,-1,41,43,-1,-1,45,47,-1,49,51,-1,53,55,57,59,61,63,65,-1,-1,-1,-1,-1,67,69,71,-1,-1,-1,-1,-1,-1,-1,-1,-1,-1,-1,-1,-1,-1,-1,-1,-1,-1,-1,-1,-1,-1,-1,-1,-1],"loss_changes":[2.6977798E1,1.0776686E1,8.968838E0,6.851686E0,2.2772121E0,2.6370547E0,1.2783604E0,1.9845341E0,5.2008424E0,1.0757675E0,4.2432475E0,1.4145089E0,1.6004459E0,1.4702282E0,1.0746168E0,1.2832543E0,0E0,1.9502625E0,1.6313667E0,7.8988457E-1,1.0349008E0,0E0,0E0,4.5138884E-1,1.1138701E0,0E0,0E0,2.4802828E0,9.653797E-1,0E0,5.2448463E-1,9.154285E-1,0E0,2.2455835E0,9.0989214E-1,9.692976E-1,5.1680183E-1,2.96113E0,4.570961E-1,3.6858267E-1,0E0,0E0,0E0,0E0,0E0,2.075666E0,1.2646492E0,9.647045E-1,0E0,0E0,0E0,0E0,0E0,0E0,0E0,0E0,0E0,0E0,0E0,0E0,0E0,0E0,0E0,0E0,0E0,0E0,0E0,0E0,0E0,0E0,0E0,0E0,0E0],"parents":[2147483647,0,0,1,1,2,2,3,3,4,4,5,5,6,6,7,7,8,8,9,9,10,10,11,11,12,12,13,13,14,14,15,15,17,17,18,18,19,19,20,20,23,23,24,24,27,27,28,28,30,30,31,31,33,33,34,34,35,35,36,36,37,37,38,38,39,39,45,45,46,46,47,47],"right_children":[2,4,6,8,10,12,14,16,18,20,22,24,26,28,30,32,-1,34,36,38,40,-1,-1,42,44,-1,-1,46,48,-1,50,52,-1,54,56,58,60,62,64,66,-1,-1,-1,-1,-1,68,70,72,-1,-1,-1,-1,-1,-1,-1,-1,-1,-1,-1,-1,-1,-1,-1,-1,-1,-1,-1,-1,-1,-1,-1,-1,-1],"split_conditions":[4.846154E-1,1.7465754E-1,1.7065868E-1,3.1538463E-1,3.3219177E-1,4.72973E-1,3.3233535E-1,1.0601002E-1,2.4251497E-1,4.6923077E-1,3.5273975E-1,2.6358294E-1,4.9295776E-2,2.1856287E-1,5.3846157E-1,2.0422536E-1,-1.6090119E-1,3.8E-1,3.45E-1,9.098497E-2,1.1686143E-1,2.9763597E-1,-1.3707955E-1,6.1538464E-1,2.0547944E-1,1.1112095E-1,-1.6194674E-1,9.859155E-2,8.3076924E-1,-1.1151652E-1,1.0601002E-1,2.2307692E-1,-1.1853752E-1,3.2999998E-1,4.5384616E-1,9.246576E-2,4.75E-1,1.5E-1,1.6499999E-1,2.2155689E-1,1.8793322E-1,3.07016E-1,3.8624883E-2,-1.2835264E-1,1.4418742E-1,2.035928E-1,1.9161677E-1,6.629956E-1,1.9583452E-2,2.3174857E-1,4.2371005E-3,-2.6066089E-2,2.1486212E-1,-1.02818355E-1,3.1607485E-1,-1.5362786E-1,5.2013516E-2,1.6161191E-1,-1.0872913E-1,3.49183E-1,1.7310633E-1,-1.5773048E-1,8.205196E-2,-1.139602E-1,-1.5726411E-1,-1.230034E-1,4.8953056E-2,3.4247068E-1,-1.9087097E-2,1.01749726E-1,-1.355166E-1,3.167999E-1,2.5672074E-2],"split_indices":[10,1,9,10,3,8,9,4,9,10,3,7,5,9,10,5,0,2,2,4,4,0,0,10,3,0,0,5,10,0,4,10,0,2,10,3,2,2,2,9,0,0,0,0,0,9,9,7,0,0,0,0,0,0,0,0,0,0,0,0,0,0,0,0,0,0,0,0,0,0,0,0,0],"split_type":[0,0,0,0,0,0,0,0,0,0,0,0,0,0,0,0,0,0,0,0,0,0,0,0,0,0,0,0,0,0,0,0,0,0,0,0,0,0,0,0,0,0,0,0,0,0,0,0,0,0,0,0,0,0,0,0,0,0,0,0,0,0,0,0,0,0,0,0,0,0,0,0,0],"sum_hessian":[2.6393887E2,2.0581499E2,5.8123905E1,4.6277927E1,1.5953706E2,1.7560822E1,4.0563084E1,1.896327E1,2.7314655E1,1.5316312E2,6.373943E0,6.4079113E0,1.1152909E1,3.6165348E1,4.397735E0,6.8166256E0,1.2146645E1,1.0998068E1,1.6316587E1,1.4877026E2,4.392847E0,2.4691405E0,3.9048023E0,2.825036E0,3.5828753E0,1.6222577E0,9.530651E0,1.2899919E1,2.326543E1,1.4610276E0,2.9367075E0,4.5246596E0,2.291966E0,3.058921E0,7.9391465E0,2.8162076E0,1.35003805E1,1.7737371E1,1.310329E2,3.328733E0,1.0641142E0,1.7017847E0,1.1232513E0,2.2758212E0,1.3070542E0,6.6137757E0,6.286143E0,2.1969172E1,1.2962589E0,1.4076321E0,1.5290754E0,2.0866458E0,2.4380136E0,1.3418454E0,1.7170757E0,5.809559E0,2.1295877E0,1.2537084E0,1.5624993E0,6.8608255E0,6.639555E0,1.0977853E1,6.7595186E0,5.4513878E1,7.651902E1,2.291502E0,1.0372312E0,4.857859E0,1.7559164E0,3.7846801E0,2.5014627E0,2.06999E1,1.2692711E0],"tree_param":{"num_deleted":"0","num_feature":"11","num_nodes":"73","size_leaf_vector":"0"}},{"base_weights":[-4.0168434E-1,-4.476964E-1,2.1144545E-1,-1.3462846E-1,-4.7999093E-1,-4.4552812E-1,3.9840034E-1,-4.9919567E-1,1.0127845E-1,-2.0503555E-1,-5.003952E-1,4.9724576E-1,-3.2258645E-1,3.2775992E-1,-4.4317243E-1,-4.3088686E-1,3.3702537E-1,-5.056202E-1,1.9138011E-1,6.021526E-1,-3.089335E-1,7.634316E-1,3.4231596E-2,-5.130245E-1,7.1785904E-2,9.0946233E-1,-1.3951917E-1,-5.108121E-1,1.0131727E-1,2.6069412E-1,1.332297E0,8.143718E-2,1.0449264E0,-3.085333E-1,8.122549E-1,2.016962E-1,-3.5172236E-1,-5.2417785E-1,-3.428527E-1,-3.9183506E-1,4.9565884E-1],"categories":[],"categories_nodes":[],"categories_segments":[],"categories_sizes":[],"default_left":[true,true,true,true,true,false,true,false,true,true,true,true,false,true,false,true,true,true,false,true,false,true,true,false,false,false,true,true,false,true,false,false,false,false,false,false,false,false,false,false,false],"id":15,"left_children":[1,3,5,7,9,-1,11,-1,13,15,17,19,-1,21,-1,23,25,27,-1,29,-1,31,33,-1,-1,-1,35,37,-1,39,-1,-1,-1,-1,-1,-1,-1,-1,-1,-1,-1],"loss_changes":[6.5072517E0,2.0763435E0,2.2098086E0,1.873084E0,9.7214127E-1,0E0,1.1160042E0,0E0,1.8342284E0,1.9728059E0,7.3884964E-1,1.2166111E0,0E0,1.2844192E0,0E0,4.90031E-1,1.4776585E0,6.0819244E-1,0E0,2.4254565E0,0E0,6.978452E-1,2.1626575E0,0E0,0E0,0E0,3.2937258E-1,2.1370316E-1,0E0,1.546676E0,0E0,0E0,0E0,0E0,0E0,0E0,0E0,0E0,0E0,0E0,0E0],"parents":[2147483647,0,0,1,1,2,2,3,3,4,4,6,6,8,8,9,9,10,10,11,11,13,13,15,15,16,16,17,17,19,19,21,21,22,22,26,26,27,27,29,29],"right_children":[2,4,6,8,10,-1,12,-1,14,16,18,20,-1,22,-1,24,26,28,-1,30,-1,32,34,-1,-1,-1,36,38,-1,40,-1,-1,-1,-1,-1,-1,-1,-1,-1,-1,-1],"split_conditions":[4.9486303E-1,2.6501767E-2,4.6396396E-1,4.81982E-1,9.281437E-2,-1.3365844E-1,2.862191E-1,-1.4975871E-1,1.7664671E-1,5.630631E-1,7.45509E-1,7.089041E-1,-9.677594E-2,1.590106E-2,-1.3295174E-1,3.8356164E-1,5.810811E-1,7.568493E-1,5.7414036E-2,6.0958904E-1,-9.268005E-2,3.5E-2,7.342342E-1,-1.5390736E-1,2.1535773E-2,2.728387E-1,1.4788732E-1,2.020548E-1,3.0395182E-2,4.071219E-1,3.996891E-1,2.4431154E-2,3.1347793E-1,-9.255999E-2,2.4367648E-1,6.0508862E-2,-1.0551671E-1,-1.5725335E-1,-1.0285582E-1,-1.1755052E-1,1.4869766E-1],"split_indices":[1,6,8,8,9,0,6,0,9,8,9,1,0,6,0,1,8,3,0,1,0,2,8,0,0,0,5,3,0,7,0,0,0,0,0,0,0,0,0,0,0],"split_type":[0,0,0,0,0,0,0,0,0,0,0,0,0,0,0,0,0,0,0,0,0,0,0,0,0,0,0,0,0,0,0,0,0,0,0,0,0,0,0,0,0],"sum_hessian":[2.2630516E2,2.107587E2,1.5546467E1,2.01912E1,1.905675E2,3.1376057E0,1.2408861E1,7.4940023E0,1.2697197E1,1.3928189E1,1.7663931E2,1.1185662E1,1.2231996E0,9.248141E0,3.449056E0,9.976533E0,3.951657E0,1.7558223E2,1.0570825E0,1.012163E1,1.0640327E0,3.0782883E0,6.1698527E0,8.5576105E0,1.4189222E0,1.3825057E0,2.5691514E0,1.7425003E2,1.3321998E0,7.821078E0,2.3005514E0,1.2760435E0,1.8022448E0,4.701851E0,1.4680016E0,1.0041028E0,1.5650487E0,1.5944125E2,1.4808772E1,1.8938805E0,5.9271975E0],"tree_param":{"num_deleted":"0","num_feature":"11","num_nodes":"41","size_leaf_vector":"0"}},{"base_weights":[-5.080741E-1,-5.2760255E-1,-2.165022E-1,-4.069293E-1,-5.544813E-1,-3.2042524E-1,4.8733896E-1,-5.0198954E-1,-2.4314229E-1,-4.3887472E-1,2.1012229E-1,-1.9010782E-1,-5.3831226E-1,1.1446156E-1,-4.2886084E-1,-5.12605E-1,-5.6914482E-2,6.672461E-1,-3.1501323E-1,-3.876063E-1,2.103853E-1,-2.5598627E-1,7.706475E-1,-5.083897E-1,3.1518973E-2,-4.2237288E-1,1.8493423E-1],"categories":[],"categories_nodes":[],"categories_segments":[],"categories_sizes":[],"default_left":[true,true,true,true,false,true,false,true,true,true,true,true,false,true,true,false,false,false,false,false,false,true,false,false,false,false,false],"id":16,"left_children":[1,3,5,7,-1,9,-1,11,13,15,17,19,-1,21,23,-1,-1,-1,-1,-1,-1,25,-1,-1,-1,-1,-1],"loss_changes":[1.128128E0,4.3539047E-1,1.282017E0,5.1447153E-1,0E0,9.729736E-1,0E0,1.8007135E-1,1.1750137E0,3.0260205E-1,9.8655903E-1,4.0951747E-1,0E0,1.7978002E0,4.3228054E-1,0E0,0E0,0E0,0E0,0E0,0E0,4.4192564E-1,0E0,0E0,0E0,0E0,0E0],"parents":[2147483647,0,0,1,1,2,2,3,3,5,5,7,7,8,8,9,9,10,10,11,11,13,13,14,14,21,21],"right_children":[2,4,6,8,-1,10,-1,12,14,16,18,20,-1,22,24,-1,-1,-1,-1,-1,-1,26,-1,-1,-1,-1,-1],"split_conditions":[6.230769E-1,1.6609588E-1,3.7323943E-1,4.151786E-1,-1.663444E-1,5.198238E-1,1.462017E-1,3.0800295E-1,5.271659E-1,3.8392857E-1,1.2520868E-1,1.5568861E-1,-1.6149369E-1,1.1472603E-1,6.9642854E-1,-1.537815E-1,-1.7074345E-2,2.0017384E-1,-9.450398E-2,-1.1628189E-1,6.311559E-2,1.4788732E-1,2.3119427E-1,-1.5251692E-1,9.455692E-3,-1.2671188E-1,5.548027E-2],"split_indices":[10,1,5,0,0,7,0,7,7,0,4,9,0,3,0,0,0,0,0,0,0,5,0,0,0,0,0],"split_type":[0,0,0,0,0,0,0,0,0,0,0,0,0,0,0,0,0,0,0,0,0,0,0,0,0,0,0],"sum_hessian":[2.1718929E2,2.0279716E2,1.4392119E1,3.9882545E1,1.6291461E2,1.30151615E1,1.376957E0,2.3929325E1,1.5953219E1,1.0780996E1,2.2341652E0,3.14645E0,2.0782875E1,5.5842824E0,1.0368937E1,8.749946E0,2.031051E0,1.0497522E0,1.184413E0,2.1288233E0,1.0176268E0,3.9590821E0,1.6252005E0,8.752665E0,1.6162728E0,2.9049358E0,1.0541463E0],"tree_param":{"num_deleted":"0","num_feature":"11","num_nodes":"27","size_leaf_vector":"0"}},{"base_weights":[-5.298971E-1,-5.4742396E-1,-1.2572299E-1,-5.5551314E-1,-3.599542E-1,-3.606933E-1,4.0336084E-1,1.9484298E-1,-4.3196136E-1,1.8135662E-1,-4.7677475E-1,9.294458E-1,-3.200173E-1,-5.1236635E-1,-8.033302E-2],"categories":[],"categories_nodes":[],"categories_segments":[],"categories_sizes":[],"default_left":[true,true,true,false,true,true,true,false,true,false,false,false,false,false,false],"id":17,"left_children":[1,3,5,-1,7,9,11,-1,13,-1,-1,-1,-1,-1,-1],"loss_changes":[1.4722748E0,1.15787506E-1,1.430948E0,0E0,5.4171145E-1,5.7021356E-1,1.6872182E0,0E0,2.542411E-1,0E0,0E0,0E0,0E0,0E0,0E0],"parents":[2147483647,0,0,1,1,2,2,4,4,5,5,6,6,8,8],"right_children":[2,4,6,-1,8,10,12,-1,14,-1,-1,-1,-1,-1,-1],"split_conditions":[2.078464E-1,5.1541096E-1,5.18018E-1,-1.6665395E-1,5.222603E-1,1.8263474E-1,8.561644E-2,5.8452897E-2,2.6056337E-1,5.440699E-2,-1.4303243E-1,2.7883375E-1,-9.6005194E-2,-1.5370992E-1,-2.4099907E-2],"split_indices":[4,1,8,0,1,9,3,0,5,0,0,0,0,0,0],"split_type":[0,0,0,0,0,0,0,0,0,0,0,0,0,0,0],"sum_hessian":[2.1655032E2,2.0721031E2,9.340001E0,1.9675716E2,1.0453167E1,6.6880527E0,2.6519487E0,1.0048862E0,9.448281E0,1.0804588E0,5.607594E0,1.3704239E0,1.2815248E0,7.317827E0,2.130454E0],"tree_param":{"num_deleted":"0","num_feature":"11","num_nodes":"15","size_leaf_vector":"0"}},{"base_weights":[3.692073E-1,4.3972352E-1,-2.1611243E-1,5.328765E-1,1.8586156E-1,-4.2726496E-1,1.05217606E-1,6.736681E-1,4.6049273E-1,2.4099816E-3,5.7595056E-1,-4.9459714E-1,2.2280851E-1,5.481836E-1,-2.500753E-1,4.6287168E-2,7.360683E-1,2.23796E-1,5.353925E-1,-1.5546267E-1,3.949883E-1,7.5872636E-1,1.7223997E-1,-5.2820605E-1,-2.8636417E-1,-3.0902928E-1,6.7653835E-1,7.3217916E-1,-3.125926E-1,-4.9876037E-1,2.1159485E-1,3.031131E-1,-4.7766474E-1,7.765298E-1,1.4251627E-1,8.6271536E-4,6.1497563E-1,2.618933E-1,6.180918E-1,-2.9385158E-1,3.704912E-1,6.2785906E-1,1.2570711E-2,1.7199883E-2,8.5110086E-1,-2.422038E-1,5.1182866E-1,1.6718863E-1,-4.4122756E-1,6.592439E-2,8.5521394E-1,-3.4573668E-1,6.1938673E-1,-1.9536069E-1,6.500248E-1,-2.7718004E-2,7.922945E-1,-4.4093603E-1,5.23898E-1,2.6794034E-1,-2.5692284E-1,1.3683687E-1,8.4173155E-1,4.83043E-1,-9.1656215E-2,5.4575616E-1,1.0769757E0,-3.5400435E-1,2.8709242E-1,-2.0458175E-1,6.3107705E-1,8.7820464E-1,1.13813415E-1,5.271366E-1,-3.3710453E-1,1.1747332E0,6.230044E-1,3.4215072E-1,-5.18709E-1,7.588847E-1,-3.5165933E-1,3.5127765E-1,1.0857769E0],"categories":[],"categories_nodes":[],"categories_segments":[],"categories_sizes":[],"default_left":[true,true,true,true,true,true,true,true,true,true,true,true,true,true,true,true,true,true,true,true,true,true,true,false,true,false,false,true,false,false,true,true,false,true,true,true,true,true,true,true,true,true,true,false,true,true,true,false,false,false,true,false,false,false,false,false,false,false,false,false,false,false,false,false,false,false,false,false,false,false,false,false,false,false,false,false,false,false,false,false,false,false,false],"id":18,"left_children":[1,3,5,7,9,11,13,15,17,19,21,23,25,27,29,31,33,35,37,39,41,43,45,-1,47,-1,-1,49,-1,-1,51,53,-1,55,57,59,61,63,65,67,69,71,73,-1,75,77,79,-1,-1,-1,81,-1,-1,-1,-1,-1,-1,-1,-1,-1,-1,-1,-1,-1,-1,-1,-1,-1,-1,-1,-1,-1,-1,-1,-1,-1,-1,-1,-1,-1,-1,-1,-1],"loss_changes":[1.6481537E1,8.287842E0,2.9867623E0,2.328392E0,6.921525E0,1.2640929E0,2.9692876E0,3.3231163E0,2.9678001E0,4.201542E0,2.152238E0,1.8092632E-2,9.724908E-1,1.54704E0,1.3308811E0,1.3322905E0,1.7608948E0,3.8001242E0,2.8142014E0,3.6287723E0,1.7234302E0,1.4240351E0,1.6630458E0,0E0,4.6338028E-1,0E0,0E0,5.3024125E-1,0E0,0E0,1.2229086E0,1.2568531E0,0E0,9.4410324E-1,1.6101983E0,2.0490966E0,1.5999937E0,2.5684884E0,2.7413826E0,1.4590302E0,1.7049999E0,1.4524031E0,1.6852441E0,0E0,6.453028E-1,1.0829184E0,1.617633E0,0E0,0E0,0E0,3.1075907E-1,0E0,0E0,0E0,0E0,0E0,0E0,0E0,0E0,0E0,0E0,0E0,0E0,0E0,0E0,0E0,0E0,0E0,0E0,0E0,0E0,0E0,0E0,0E0,0E0,0E0,0E0,0E0,0E0,0E0,0E0,0E0,0E0],"parents":[2147483647,0,0,1,1,2,2,3,3,4,4,5,5,6,6,7,7,8,8,9,9,10,10,11,11,12,12,13,13,14,14,15,15,16,16,17,17,18,18,19,19,20,20,21,21,22,22,24,24,27,27,30,30,31,31,33,33,34,34,35,35,36,36,37,37,38,38,39,39,40,40,41,41,42,42,44,44,45,45,46,46,50,50],"right_children":[2,4,6,8,10,12,14,16,18,20,22,24,26,28,30,32,34,36,38,40,42,44,46,-1,48,-1,-1,50,-1,-1,52,54,-1,56,58,60,62,64,66,68,70,72,74,-1,76,78,80,-1,-1,-1,82,-1,-1,-1,-1,-1,-1,-1,-1,-1,-1,-1,-1,-1,-1,-1,-1,-1,-1,-1,-1,-1,-1,-1,-1,-1,-1,-1,-1,-1,-1,-1,-1],"split_conditions":[4.6923077E-1,2.1257484E-1,2.7739727E-1,1.22754484E-1,3.0993152E-1,6.45E-1,2.7276063E-1,8.9315526E-2,8.5E-2,1.4106846E-1,9.931507E-2,5.900901E-1,9.859155E-2,1.7664671E-1,5.461539E-1,2.8E-1,2.7568495E-1,4.9229074E-1,1.056338E-1,3.4507042E-1,2.0769231E-1,3.3219177E-1,1.6780822E-1,-1.5846182E-1,1.4041096E-1,-9.270879E-2,2.0296152E-1,8.083832E-2,-9.377778E-2,-1.4962812E-1,1.0616438E-1,3.8950074E-1,-1.4329943E-1,1.1153846E-1,5.2679884E-1,1.07679464E-1,1.4084506E-1,1.16026714E-1,6.576576E-1,3.1506848E-1,8.561644E-2,3.297162E-1,3.6E-1,5.1599653E-3,7E-2,1.6153847E-1,3.2876712E-1,5.015659E-2,-1.3236827E-1,1.9777318E-2,3.5273972E-1,-1.0372101E-1,1.8581602E-1,-5.8608208E-2,1.9500744E-1,-8.315401E-3,2.3768836E-1,-1.3228081E-1,1.571694E-1,8.038211E-2,-7.707685E-2,4.1051064E-2,2.525195E-1,1.449129E-1,-2.7496865E-2,1.6372685E-1,3.2309273E-1,-1.0620131E-1,8.612773E-2,-6.1374526E-2,1.8932313E-1,2.634614E-1,3.4144025E-2,1.5814099E-1,-1.01131365E-1,3.5241997E-1,1.8690132E-1,1.0264522E-1,-1.556127E-1,2.2766542E-1,-1.054978E-1,1.053833E-1,3.257331E-1],"split_indices":[10,9,1,9,1,2,7,4,2,4,3,8,5,9,10,2,3,7,5,5,10,1,3,0,1,0,0,9,0,0,3,7,0,10,7,4,5,4,8,3,3,4,2,0,2,10,3,0,0,0,1,0,0,0,0,0,0,0,0,0,0,0,0,0,0,0,0,0,0,0,0,0,0,0,0,0,0,0,0,0,0,0,0],"split_type":[0,0,0,0,0,0,0,0,0,0,0,0,0,0,0,0,0,0,0,0,0,0,0,0,0,0,0,0,0,0,0,0,0,0,0,0,0,0,0,0,0,0,0,0,0,0,0,0,0,0,0,0,0,0,0,0,0,0,0,0,0,0,0,0,0,0,0,0,0,0,0,0,0,0,0,0,0,0,0,0,0,0,0],"sum_hessian":[3.9601273E2,3.53655E2,4.235773E1,2.5791556E2,9.573946E1,2.53621E1,1.699563E1,8.475466E1,1.7316089E2,6.5800766E1,2.9938696E1,2.3198458E1,2.1636422E0,7.3228574E0,9.672772E0,7.824798E0,7.692986E1,4.2582016E1,1.3057887E2,4.7359478E1,1.844129E1,2.000311E1,9.935585E0,1.865149E1,4.54697E0,1.1429043E0,1.0207379E0,6.1563096E0,1.1665479E0,6.2342615E0,3.438511E0,5.533785E0,2.2910132E0,7.173175E1,5.1981163E0,2.7762417E1,1.4819597E1,3.1284172E1,9.929469E1,3.784342E1,9.516059E0,1.1062833E1,7.3784575E0,2.3472235E0,1.7655888E1,4.603777E0,5.331808E0,1.1371063E0,3.4098637E0,1.1990521E0,4.9572573E0,1.5171657E0,1.9213454E0,2.4501078E0,3.083677E0,1.364462E0,7.036729E1,1.992998E0,3.2051182E0,1.3616111E1,1.4146306E1,5.283094E0,9.536504E0,1.9020403E1,1.2263769E1,8.766502E1,1.1629672E1,3.4646637E1,3.1967819E0,3.0344372E0,6.4816217E0,6.963243E0,4.0995893E0,2.780014E0,4.5984435E0,5.5835586E0,1.2072329E1,1.4024616E0,3.2013154E0,4.239864E0,1.0919442E0,2.3482676E0,2.60899E0],"tree_param":{"num_deleted":"0","num_feature":"11","num_nodes":"83","size_leaf_vector":"0"}},{"base_weights":[3.353661E-1,3.545146E-1,-2.5920102E-1,1.2866712E-1,3.782453E-1,2.450135E-1,-3.5067347E-1,-1.06728114E-1,6.244009E-1,2.6276112E-1,4.316626E-1,6.533164E-2,-4.99477E-1,2.5738562E-2,-5.428416E-1,-3.6073804E-1,7.518664E-1,-2.4572489E-1,3.0546647E-1,5.1313406E-1,3.2607305E-1,4.6991506E-1,-3.497789E-1,-4.9611747E-1,1.2226388E-1,2.0111528E-1,9.1890323E-1,-4.2556927E-1,6.1024845E-1,4.215779E-1,7.122673E-2,-2.3475792E-1,5.4490066E-1,1.0476373E0,2.8673264E-1,3.8527521E-1,-1.3970065E-1,5.784476E-1,-3.7446913E-1,4.2105477E-2,1.062374E0,-5.238622E-1,1.2061477E-1,2.5224698E-1,7.163034E-1,-1.8885724E-1,3.8798127E-1,-4.950373E-1,3.061666E-1,4.6588144E-1,7.8475684E-1,3.6581647E-1,5.9839938E-2],"categories":[],"categories_nodes":[],"categories_segments":[],"categories_sizes":[],"default_left":[true,true,true,true,true,false,true,true,true,true,true,true,false,true,false,false,true,true,true,true,true,false,false,false,true,true,true,true,false,true,true,true,true,false,true,false,false,false,false,false,false,false,false,false,false,false,false,false,false,false,false,false,false],"id":19,"left_children":[1,3,5,7,9,-1,11,13,15,17,19,21,-1,23,-1,-1,25,27,29,31,33,-1,-1,-1,35,37,39,41,-1,43,45,47,49,-1,51,-1,-1,-1,-1,-1,-1,-1,-1,-1,-1,-1,-1,-1,-1,-1,-1,-1,-1],"loss_changes":[4.756569E0,2.0809784E0,7.021641E-1,4.652408E0,2.1015625E0,0E0,7.581873E-1,1.6026207E0,1.8783221E0,2.596465E0,1.9312401E0,8.3149874E-1,0E0,1.171231E0,0E0,0E0,8.8752174E-1,1.7299157E0,2.8954525E0,3.3579788E0,2.7934752E0,0E0,0E0,0E0,1.3910377E0,1.083777E0,1.0450974E0,5.1851726E-1,0E0,3.398162E0,3.1091712E0,1.0298706E0,2.1119308E0,0E0,1.8573742E0,0E0,0E0,0E0,0E0,0E0,0E0,0E0,0E0,0E0,0E0,0E0,0E0,0E0,0E0,0E0,0E0,0E0,0E0],"parents":[2147483647,0,0,1,1,2,2,3,3,4,4,6,6,7,7,8,8,9,9,10,10,11,11,13,13,16,16,17,17,18,18,19,19,20,20,24,24,25,25,26,26,27,27,29,29,30,30,31,31,32,32,34,34],"right_children":[2,4,6,8,10,-1,12,14,16,18,20,22,-1,24,-1,-1,26,28,30,32,34,-1,-1,-1,36,38,40,42,-1,44,46,48,50,-1,52,-1,-1,-1,-1,-1,-1,-1,-1,-1,-1,-1,-1,-1,-1,-1,-1,-1,-1],"split_conditions":[3.6572438E-1,2.6501767E-2,1.7410713E-1,3.7946427E-1,2.2307692E-1,7.350405E-2,2.887324E-1,1.0616438E-1,5.3003533E-3,4.1997063E-1,3.15E-1,4.3693694E-1,-1.4984311E-1,8.833922E-3,-1.628525E-1,-1.0822142E-1,4.35E-1,8.561644E-2,3.348214E-1,6.0934894E-2,2.0089287E-1,1.4097452E-1,-1.0493367E-1,-1.4883524E-1,1.9434629E-2,4.234234E-1,3.5135135E-1,5.720721E-1,1.8307453E-1,2.723214E-1,4.776786E-1,3.1424376E-1,4.5384616E-1,3.142912E-1,1.2771285E-1,1.1558257E-1,-4.1910198E-2,1.7353427E-1,-1.1234074E-1,1.2631644E-2,3.187122E-1,-1.5715866E-1,3.618443E-2,7.5674094E-2,2.1489103E-1,-5.6657176E-2,1.16394386E-1,-1.4851119E-1,9.184998E-2,1.3976444E-1,2.3542707E-1,1.0974494E-1,1.7951982E-2],"split_indices":[6,6,0,0,10,0,5,3,6,7,2,8,0,6,0,0,2,3,0,4,0,0,0,0,6,8,8,8,0,0,0,7,10,0,4,0,0,0,0,0,0,0,0,0,0,0,0,0,0,0,0,0,0],"split_type":[0,0,0,0,0,0,0,0,0,0,0,0,0,0,0,0,0,0,0,0,0,0,0,0,0,0,0,0,0,0,0,0,0,0,0,0,0,0,0,0,0,0,0,0,0,0,0,0,0,0,0,0,0],"sum_hessian":[4.087188E2,3.9635754E2,1.2361258E1,3.829758E1,3.5805997E2,1.6404141E0,1.0720843E1,2.6499304E1,1.1798277E1,1.1511312E2,2.4294685E2,2.9722831E0,7.7485604E0,2.1047302E1,5.452001E0,1.1420062E0,1.0656271E1,8.550435E0,1.0656268E2,1.3495654E2,1.079903E2,1.4383678E0,1.5339153E0,2.639157E0,1.8408146E1,2.9927247E0,7.663546E0,7.4813824E0,1.0690525E0,7.071156E1,3.5851124E1,5.238351E0,1.297182E2,4.2582E0,1.037321E2,8.950831E0,9.4573145E0,1.8046725E0,1.1880523E0,1.2595417E0,6.404004E0,6.374989E0,1.1063935E0,4.608809E1,2.4623472E1,1.9908352E1,1.5942774E1,3.5938911E0,1.6444597E0,9.978645E1,2.9931744E1,7.646708E1,2.7265018E1],"tree_param":{"num_deleted":"0","num_feature":"11","num_nodes":"53","size_leaf_vector":"0"}},{"base_weights":[-7.850505E-2,-3.9693347E-1,1.9181675E-1,-4.1877443E-1,4.9869108E-1,-7.6383767E-3,4.9682075E-1,-4.977637E-1,-2.1484952E-1,5.9540486E-1,1.6126597E-1,3.2701448E-1,-2.2730404E-1,1.9342454E-1,6.311365E-1,-5.084748E-1,-3.2677405E-2,-4.3971837E-1,1.7104702E-1,-2.5714138E-1,4.8249033E-1,-3.013576E-1,5.540522E-1,3.7055767E-1,-4.542107E-1,6.751578E-1,-3.4328493E-1,-4.8373336E-1,1.8070449E-1,7.185184E-1,-1.7056471E-1,-4.7203884E-1,2.380802E-1,5.805925E-1,-4.028592E-1,-4.517436E-1,-8.7238245E-2,9.1083896E-1,-3.272178E-1,6.446639E-1,-3.0099598E-1,3.3314127E-1,8.2219654E-1,1.8533841E-1,-5.322852E-1,1.2299685E0,-3.2994092E-1,-3.2786047E-1,1.7533147E-1,4.1346627E-1,1.3974388E0,-5.158395E-1,2.5300933E-2,6.630502E-1,-3.0643126E-1,1.3801873E-1,1.2057651E0,-3.3632976E-1,8.2880914E-1,-4.5901853E-1,1.3835935E-1,4.343828E-1,-3.3393082E-1,-8.515216E-2,9.203867E-1],"categories":[],"categories_nodes":[],"categories_segments":[],"categories_sizes":[],"default_left":[true,true,true,true,true,true,true,true,true,false,false,true,true,true,true,false,false,true,true,true,true,true,true,true,false,true,false,true,false,true,true,false,false,true,false,true,true,true,false,true,true,true,true,false,false,false,false,false,false,false,false,false,false,false,false,false,false,false,false,false,false,false,false,false,false],"id":20,"left_children":[1,3,5,7,9,11,13,15,17,-1,-1,19,21,23,25,-1,-1,27,29,31,33,35,37,39,-1,41,-1,43,-1,45,47,-1,-1,49,-1,51,53,55,-1,57,59,61,63,-1,-1,-1,-1,-1,-1,-1,-1,-1,-1,-1,-1,-1,-1,-1,-1,-1,-1,-1,-1,-1,-1],"loss_changes":[2.1086754E1,2.4074802E0,8.075953E0,1.6691971E0,6.1950684E-3,6.044328E0,2.0164776E0,3.7553406E-1,2.8993716E0,0E0,0E0,3.0841966E0,3.038026E0,2.1810853E0,1.7731409E0,0E0,0E0,6.565919E-1,2.4981809E0,9.10923E-1,2.499855E0,1.4408836E0,1.7594438E0,2.8314943E0,0E0,1.4720087E0,0E0,7.397132E-1,0E0,3.125844E0,5.270194E-1,0E0,0E0,2.684435E0,0E0,8.314395E-1,3.5261939E0,6.478927E-1,0E0,2.174303E0,3.991786E-1,9.635296E-1,2.1807785E0,0E0,0E0,0E0,0E0,0E0,0E0,0E0,0E0,0E0,0E0,0E0,0E0,0E0,0E0,0E0,0E0,0E0,0E0,0E0,0E0,0E0,0E0],"parents":[2147483647,0,0,1,1,2,2,3,3,4,4,5,5,6,6,7,7,8,8,11,11,12,12,13,13,14,14,17,17,18,18,19,19,20,20,21,21,22,22,23,23,25,25,27,27,29,29,30,30,33,33,35,35,36,36,37,37,39,39,40,40,41,41,42,42],"right_children":[2,4,6,8,10,12,14,16,18,-1,-1,20,22,24,26,-1,-1,28,30,32,34,36,38,40,-1,42,-1,44,-1,46,48,-1,-1,50,-1,52,54,56,-1,58,60,62,64,-1,-1,-1,-1,-1,-1,-1,-1,-1,-1,-1,-1,-1,-1,-1,-1,-1,-1,-1,-1,-1,-1],"split_conditions":[3.1538463E-1,7.1875E-1,2.4251497E-1,2.423077E-1,7.6339287E-1,4.770318E-2,2.901786E-1,6.3392854E-1,1.8862276E-1,1.7862147E-1,4.8379794E-2,1.2874252E-1,6.1607146E-1,3.4507042E-1,7.474302E-1,-1.5254246E-1,-9.803222E-3,6.711712E-1,2.9017857E-1,3.5000002E-1,5.469897E-1,9.931507E-2,1.3780919E-1,1.130137E-1,-1.3626322E-1,1.056338E-1,-1.0298549E-1,3.4801763E-1,5.421135E-2,6.216216E-1,2.846154E-1,-1.4161165E-1,7.142407E-2,1.19718306E-1,-1.2085777E-1,5.923077E-1,3.0543318E-1,6.4732146E-1,-9.816534E-2,6.890459E-2,2.723214E-1,7.746479E-2,3.25E-1,5.5601526E-2,-1.5968557E-1,3.6899057E-1,-9.898228E-2,-9.835815E-2,5.2599445E-2,1.2403989E-1,4.1923165E-1,-1.5475187E-1,7.5902804E-3,1.9891506E-1,-9.192938E-2,4.140562E-2,3.6172956E-1,-1.0089893E-1,2.4864276E-1,-1.3770556E-1,4.1507807E-2,1.3031484E-1,-1.0017925E-1,-2.5545647E-2,2.76116E-1],"split_indices":[10,0,9,10,0,6,0,0,9,0,0,9,0,5,7,0,0,8,0,2,7,3,6,3,0,5,0,7,0,8,10,0,0,5,0,10,7,0,0,6,0,5,2,0,0,0,0,0,0,0,0,0,0,0,0,0,0,0,0,0,0,0,0,0,0],"split_type":[0,0,0,0,0,0,0,0,0,0,0,0,0,0,0,0,0,0,0,0,0,0,0,0,0,0,0,0,0,0,0,0,0,0,0,0,0,0,0,0,0,0,0,0,0,0,0,0,0,0,0,0,0,0,0,0,0,0,0,0,0,0,0,0,0],"sum_hessian":[2.430877E2,1.11397484E2,1.3169022E2,1.09265335E2,2.132154E0,8.021147E1,5.147875E1,7.771998E1,3.1545357E1,1.0629379E0,1.0692163E0,3.159259E1,4.861888E1,1.6545462E1,3.4933285E1,7.587916E1,1.8408161E0,1.9843008E1,1.1702349E1,6.503533E0,2.5089056E1,4.4971035E1,3.6478455E0,1.3327987E1,3.2174754E0,3.3717167E1,1.2161173E0,1.8734251E1,1.1087574E0,4.0724573E0,7.6298914E0,4.568069E0,1.935464E0,2.2896235E1,2.192822E0,2.5765179E1,1.9205856E1,2.5727153E0,1.0751301E0,9.49321E0,3.8347764E0,1.1119214E1,2.2597954E1,1.0768816E0,1.765737E1,2.620855E0,1.4516022E0,5.280661E0,2.3492303E0,2.0257696E1,2.6385384E0,2.2641705E1,3.123473E0,3.8844817E0,1.5321375E1,1.1160945E0,1.4566209E0,1.3697472E0,8.123464E0,2.787459E0,1.0473176E0,9.956881E0,1.1623338E0,2.2196393E0,2.0378315E1],"tree_param":{"num_deleted":"0","num_feature":"11","num_nodes":"65","size_leaf_vector":"0"}},{"base_weights":[-3.819107E-1,-4.398166E-1,1.7659973E-1,-6.0417116E-2,-4.7441387E-1,-4.304379E-1,3.1644636E-1,3.3979723E-1,-4.934438E-1,-4.7983906E-1,1.8924427E-1,7.2794616E-1,1.0370049E-1,9.8256195E-1,3.6335476E-2,-4.8514673E-1,8.852051E-2,1.2857049E0,-1.3255481E-1,-2.4395505E-1,5.566333E-1,-3.932262E-1,3.0450484E-1,-1.1100245E-1,-4.9500516E-1,-3.033666E-1,1.0606353E-1,-4.9490413E-1,5.489701E-1,9.8521936E-1,-3.4492812E-1,-3.4442303E-1,6.839592E-1,-4.420969E-1,6.744222E-1,-1.8991129E-1,-5.0508106E-1],"categories":[],"categories_nodes":[],"categories_segments":[],"categories_sizes":[],"default_left":[true,true,true,true,true,false,true,true,false,true,false,true,true,false,true,true,false,false,true,true,true,false,true,true,true,false,false,false,false,false,false,false,false,false,false,false,false],"id":21,"left_children":[1,3,5,7,9,-1,11,13,-1,15,-1,17,19,-1,21,23,-1,-1,25,27,29,-1,31,33,35,-1,-1,-1,-1,-1,-1,-1,-1,-1,-1,-1,-1],"loss_changes":[6.5343513E0,2.3494797E0,1.7888858E0,2.9901938E0,6.8808746E-1,0E0,1.3601667E0,1.7307447E0,0E0,5.401726E-1,0E0,2.77309E0,2.0216384E0,0E0,9.480152E-1,5.4795456E-1,0E0,0E0,1.5604806E-1,1.7582715E0,2.4671109E0,0E0,1.464364E0,1.7246498E0,3.9277267E-1,0E0,0E0,0E0,0E0,0E0,0E0,0E0,0E0,0E0,0E0,0E0,0E0],"parents":[2147483647,0,0,1,1,2,2,3,3,4,4,6,6,7,7,9,9,11,11,12,12,14,14,15,15,18,18,19,19,20,20,22,22,23,23,24,24],"right_children":[2,4,6,8,10,-1,12,14,-1,16,-1,18,20,-1,22,24,-1,-1,26,28,30,-1,32,34,36,-1,-1,-1,-1,-1,-1,-1,-1,-1,-1,-1,-1],"split_conditions":[4.8458904E-1,5E-3,4.6396396E-1,7.420495E-2,7.45509E-1,-1.2913138E-1,9.281437E-2,9.8802395E-2,-1.4803314E-1,7.568493E-1,5.6773283E-2,3.3846155E-1,3.923077E-1,2.947686E-1,2.2307692E-1,1.2367491E-2,2.6556155E-2,3.8571146E-1,4.076923E-1,1.8551236E-1,4.5384616E-1,-1.1796787E-1,3.5022026E-1,2.876712E-1,4.452055E-2,-9.100998E-2,3.181906E-2,-1.4847125E-1,1.6469103E-1,2.955658E-1,-1.0347844E-1,-1.0332691E-1,2.0518777E-1,-1.3262907E-1,2.0232667E-1,-5.697339E-2,-1.5152432E-1],"split_indices":[1,2,8,6,9,0,9,9,0,3,0,10,10,0,10,6,0,0,10,6,10,0,7,1,3,0,0,0,0,0,0,0,0,0,0,0,0],"split_type":[0,0,0,0,0,0,0,0,0,0,0,0,0,0,0,0,0,0,0,0,0,0,0,0,0,0,0,0,0,0,0,0,0,0,0,0,0],"sum_hessian":[1.9864352E2,1.801756E2,1.8467936E1,1.528659E1,1.64889E2,3.068866E0,1.5399071E1,8.0561695E0,7.230421E0,1.6382675E2,1.0622504E0,4.4227595E0,1.0976311E1,1.8659793E0,6.19019E0,1.6245605E2,1.3706986E0,2.383615E0,2.0391443E0,6.4708776E0,4.5054336E0,2.1999345E0,3.9902554E0,4.48545E0,1.579706E2,1.0302833E0,1.0088611E0,5.200763E0,1.2701144E0,2.9908466E0,1.5145868E0,1.506396E0,2.4838593E0,3.4628253E0,1.0226245E0,5.6848183E0,1.5228578E2],"tree_param":{"num_deleted":"0","num_feature":"11","num_nodes":"37","size_leaf_vector":"0"}},{"base_weights":[-4.8385134E-1,-5.11076E-1,-8.695932E-2,-2.3291461E-2,-5.2117443E-1,-4.8258096E-1,2.8872752E-1,6.789071E-1,-4.101701E-1,-5.3553003E-1,-3.780679E-1,-3.1396085E-1,4.67844E-1,2.617765E-1,-4.687495E-1,-2.8260595E-1,6.753737E-1,-5.2067745E-1,-8.438458E-2,1.0568659E-1,1.277624E0,1.8363194E-1,-2.99032E-1,5.9577924E-1,-3.4538618E-1],"categories":[],"categories_nodes":[],"categories_segments":[],"categories_sizes":[],"default_left":[true,true,true,true,true,false,true,false,false,false,true,false,true,false,true,false,true,false,true,true,false,false,false,false,false],"id":22,"left_children":[1,3,5,7,9,-1,11,-1,-1,-1,13,-1,15,-1,17,-1,19,-1,21,23,-1,-1,-1,-1,-1],"loss_changes":[2.0064888E0,8.618088E-1,2.12936E0,1.5404513E0,1.5453339E-1,0E0,9.5579267E-1,0E0,0E0,0E0,1.2392695E0,0E0,1.153044E0,0E0,2.9962826E-1,0E0,1.6266637E0,0E0,2.4142998E-1,1.0301068E0,0E0,0E0,0E0,0E0,0E0],"parents":[2147483647,0,0,1,1,2,2,3,3,4,4,6,6,10,10,12,12,14,14,16,16,18,18,19,19],"right_children":[2,4,6,8,10,-1,12,-1,-1,-1,14,-1,16,-1,18,-1,20,-1,22,24,-1,-1,-1,-1,-1],"split_conditions":[6.230769E-1,2.2072072E-1,2.1257484E-1,1.3184932E-1,5.25E-1,-1.4477429E-1,1.541096E-1,2.0367214E-1,-1.2305104E-1,-1.6065902E-1,5.3499997E-1,-9.418826E-2,6.696428E-2,7.853296E-2,3.443114E-1,-8.478179E-2,5.45045E-1,-1.5620324E-1,2.0547944E-1,1.4084506E-1,3.8328722E-1,5.5089585E-2,-8.97096E-2,1.7873378E-1,-1.0361586E-1],"split_indices":[10,8,9,1,2,0,1,0,0,0,2,0,0,0,9,0,8,0,1,5,0,0,0,0,0],"split_type":[0,0,0,0,0,0,0,0,0,0,0,0,0,0,0,0,0,0,0,0,0,0,0,0,0],"sum_hessian":[1.8880896E2,1.7641982E2,1.2389137E1,3.6453571E0,1.7277446E2,5.8958793E0,6.493258E0,1.0268165E0,2.6185408E0,1.5453073E2,1.8243732E1,1.3151686E0,5.1780896E0,2.030421E0,1.6213312E1,1.0433738E0,4.1347156E0,1.3971156E1,2.2421556E0,2.7288752E0,1.4058405E0,1.061377E0,1.1807785E0,1.1541167E0,1.5747584E0],"tree_param":{"num_deleted":"0","num_feature":"11","num_nodes":"25","size_leaf_vector":"0"}},{"base_weights":[-5.0784904E-1,-5.27375E-1,-9.3552224E-2,-3.9447471E-1,-5.420893E-1,6.351913E-1,-2.6039863E-1,-4.808689E-1,4.4326928E-1,1.1544647E-1,-4.5687383E-1,-5.260246E-1,3.2018546E-2,-3.3927736E-1,5.596719E-1],"categories":[],"categories_nodes":[],"categories_segments":[],"categories_sizes":[],"default_left":[true,true,true,true,false,false,true,true,false,true,false,false,false,false,false],"id":23,"left_children":[1,3,5,7,-1,-1,9,11,-1,13,-1,-1,-1,-1,-1],"loss_changes":[1.468338E0,1.3610077E-1,1.3399202E0,1.7699754E0,0E0,0E0,6.8554807E-1,4.7954893E-1,0E0,9.4539106E-1,0E0,0E0,0E0,0E0,0E0],"parents":[2147483647,0,0,1,1,2,2,3,3,6,6,7,7,9,9],"right_children":[2,4,6,8,-1,-1,10,12,-1,14,-1,-1,-1,-1,-1],"split_conditions":[2.078464E-1,3.0035336E-2,2.3038396E-1,7.252252E-1,-1.6262679E-1,1.905574E-1,1.8263474E-1,2.9452056E-1,1.329808E-1,2.9549247E-1,-1.3706216E-1,-1.5780738E-1,9.605564E-3,-1.0178321E-1,1.6790158E-1],"split_indices":[4,6,4,8,0,0,9,3,0,4,0,0,0,0,0],"split_type":[0,0,0,0,0,0,0,0,0,0,0,0,0,0,0],"sum_hessian":[1.8660956E2,1.7794977E2,8.659792E0,2.0510118E1,1.5743964E2,1.0903543E0,7.5694375E0,1.8978876E1,1.5312433E0,2.740136E0,4.829302E0,1.7419603E1,1.5592719E0,1.4708128E0,1.2693231E0],"tree_param":{"num_deleted":"0","num_feature":"11","num_nodes":"15","size_leaf_vector":"0"}},{"base_weights":[2.9322353E-1,3.4848347E-1,-2.2103833E-1,4.9902737E-1,2.4490888E-1,2.8999618E-1,-3.2931438E-1,-2.551094E-1,5.2617955E-1,1.0865135E-1,4.3265995E-1,-3.844336E-1,6.5072715E-1,-3.76346E-1,3.85565E-1,-5.0939745E-1,1.2488589E-1,5.3832406E-1,-4.0291682E-1,-1.3338255E-2,3.5079032E-1,-5.1340574E-1,4.57488E-1,6.668027E-2,8.3847255E-1,1.1836359E-1,-4.142421E-1,7.332691E-1,4.7054178E-1,-4.8282558E-1,6.8814725E-2,5.2265114E-1,-4.7935557E-2,3.7152952E-1,7.9449904E-1,-4.4112834E-1,1.4190315E-1,7.9575753E-1,-4.8145494E-1,2.690787E-1,6.238435E-1,-5.5061525E-1,1.036152E-1,7.111793E-1,9.9003315E-3,6.856359E-1,-1.20155394E-1,-1.8835872E-1,5.6076795E-1,2.6005483E-1,6.459154E-1,-1.8523371E-1,-4.9061456E-1],"categories":[],"categories_nodes":[],"categories_segments":[],"categories_sizes":[],"default_left":[true,true,true,true,true,true,true,true,true,true,true,false,true,true,false,false,false,true,false,true,true,false,true,false,false,false,true,true,true,true,true,true,true,true,false,true,false,false,false,false,false,false,false,false,false,false,false,false,false,false,false,false,false],"id":24,"left_children":[1,3,5,7,9,11,13,15,17,19,21,-1,23,25,-1,-1,-1,27,-1,29,31,-1,33,-1,-1,-1,35,37,39,41,43,45,47,49,-1,51,-1,-1,-1,-1,-1,-1,-1,-1,-1,-1,-1,-1,-1,-1,-1,-1,-1],"loss_changes":[1.1679764E1,5.632351E0,2.3213966E0,3.194622E0,5.596504E0,2.090593E0,1.2769077E0,6.305957E-1,1.848381E0,3.8200178E0,2.406086E0,0E0,5.2524996E-1,6.5065384E-1,0E0,0E0,0E0,1.5465698E0,0E0,3.3832397E0,2.9928384E0,0E0,2.3294144E0,0E0,0E0,0E0,5.116205E-1,3.0506115E0,3.198927E0,5.762377E-1,2.8235843E0,3.2619295E0,1.2989364E0,2.0975008E0,0E0,2.749405E-1,0E0,0E0,0E0,0E0,0E0,0E0,0E0,0E0,0E0,0E0,0E0,0E0,0E0,0E0,0E0,0E0,0E0],"parents":[2147483647,0,0,1,1,2,2,3,3,4,4,5,5,6,6,7,7,8,8,9,9,10,10,12,12,13,13,17,17,19,19,20,20,22,22,26,26,27,27,28,28,29,29,30,30,31,31,32,32,33,33,35,35],"right_children":[2,4,6,8,10,12,14,16,18,20,22,-1,24,26,-1,-1,-1,28,-1,30,32,-1,34,-1,-1,-1,36,38,40,42,44,46,48,50,-1,52,-1,-1,-1,-1,-1,-1,-1,-1,-1,-1,-1,-1,-1,-1,-1,-1,-1],"split_conditions":[4.6923077E-1,1.4670658E-1,1.1676647E-1,1.590106E-2,1.5724382E-1,2.7739725E-1,6.75E-1,5.405405E-1,7.612613E-1,1.2437396E-1,1.7567568E-1,-1.15330085E-1,2E-2,4.9657535E-2,1.1566951E-1,-1.5281925E-1,3.7465766E-2,4.279279E-1,-1.2087505E-1,1.3527396E-1,1.6901408E-1,-1.5402173E-1,3.515901E-1,2.000408E-2,2.5154176E-1,3.550908E-2,8.3076924E-1,2.3972604E-1,5.36036E-1,1.6780822E-1,4.9295776E-2,2.378965E-1,6.351351E-1,1.4106846E-1,2.3834972E-1,7.4290484E-2,4.2570945E-2,2.3872727E-1,-1.444365E-1,8.072361E-2,1.8715306E-1,-1.6518459E-1,3.1084562E-2,2.133538E-1,2.9700997E-3,2.0569079E-1,-3.604662E-2,-5.650762E-2,1.6823038E-1,7.801645E-2,1.9377463E-1,-5.5570114E-2,-1.4718437E-1],"split_indices":[10,9,9,6,6,1,2,8,8,4,8,0,2,3,0,0,0,8,0,1,5,0,6,0,0,0,10,3,8,3,5,4,8,4,0,4,0,0,0,0,0,0,0,0,0,0,0,0,0,0,0,0,0],"split_type":[0,0,0,0,0,0,0,0,0,0,0,0,0,0,0,0,0,0,0,0,0,0,0,0,0,0,0,0,0,0,0,0,0,0,0,0,0,0,0,0,0,0,0,0,0,0,0,0,0,0,0,0,0],"sum_hessian":[4.072869E2,3.6805945E2,3.922744E1,1.4845892E2,2.1960052E2,6.5648355E0,3.26626E1,4.867633E0,1.435913E2,1.2816522E2,9.14353E1,2.2648048E0,4.3000307E0,3.1090712E1,1.5718913E0,2.712156E0,2.1554766E0,1.4215375E2,1.4375359E0,8.585593E1,4.2309296E1,1.8349913E0,8.960031E1,1.3756766E0,2.9243543E0,2.0610917E0,2.9029621E1,3.4141933E1,1.0801182E2,1.2059756E1,7.379617E1,2.934854E1,1.2960757E1,7.306634E1,1.6533968E1,2.7888205E1,1.1414155E0,3.279955E1,1.342384E0,4.7864895E1,6.0146923E1,1.0864916E1,1.1948407E0,5.2695026E0,6.852667E1,2.3359154E1,5.9893856E0,1.1092387E1,1.86837E0,5.3342613E1,1.9723726E1,5.2878275E0,2.2600376E1],"tree_param":{"num_deleted":"0","num_feature":"11","num_nodes":"53","size_leaf_vector":"0"}},{"base_weights":[2.7994606E-1,3.524265E-1,1.6611834E-1,2.903281E-1,5.3555036E-1,6.5729916E-1,1.4076121E-1,3.1764132E-1,-4.9385834E-2,-2.0375894E-1,5.7101053E-1,1.5048757E-1,9.992125E-1,3.0377757E-2,2.8918988E-1,-3.4325737E-1,3.3459473E-1,4.3561447E-1,-2.4880284E-1,-3.7297747E-1,9.309205E-2,6.609026E-1,2.6378277E-1,-3.8665426E-1,6.1445934E-1,-5.2716345E-1,6.968557E-2,-2.8476313E-1,3.4824196E-1,-4.9842384E-1,9.0153836E-2,1.8288608E-1,3.94457E-1,7.053937E-1,1.0310916E-1,3.937878E-1,-3.6684766E-1,7.584787E-1,1.1543932E-1,9.228665E-1,2.6127845E-2,1.2748037E-1,-3.062828E-1,2.3190393E-1,-5.332867E-1,-3.954078E-1,3.7716535E-1,6.080772E-1,1.2261558E-2,4.2261973E-1,-1.7888896E-1,-5.1458603E-1,-7.913055E-2,2.3794155E-1,8.14328E-1,-3.5933104E-1,7.014414E-1,1.1080165E0,3.397895E-1,3.192568E-1,-2.3768061E-1,-3.709448E-1,1.6666733E-1,-4.5135108E-1,4.130959E-1,4.105964E-1,-2.6782417E-1],"categories":[],"categories_nodes":[],"categories_segments":[],"categories_sizes":[],"default_left":[true,true,true,true,true,true,true,true,true,true,true,true,false,true,true,true,true,true,true,false,false,true,true,false,false,false,true,true,true,false,false,true,true,false,false,false,true,true,true,true,true,true,true,false,false,false,true,false,false,false,false,false,false,false,false,false,false,false,false,false,false,false,false,false,false,false,false],"id":25,"left_children":[1,3,5,7,9,11,13,15,17,19,21,23,-1,25,27,29,31,33,35,-1,-1,37,39,-1,-1,-1,41,43,45,-1,-1,47,49,-1,-1,-1,51,53,55,57,59,61,63,-1,-1,-1,65,-1,-1,-1,-1,-1,-1,-1,-1,-1,-1,-1,-1,-1,-1,-1,-1,-1,-1,-1,-1],"loss_changes":[3.35112E0,2.7057152E0,1.9335394E0,1.7793369E0,1.7556705E0,1.1862035E0,2.5464468E0,2.087576E0,1.5601455E0,2.155076E-1,1.480835E0,1.3053806E0,0E0,2.0214107E0,2.3496308E0,3.7426877E-1,1.4914265E0,3.5219622E-1,9.995919E-1,0E0,0E0,2.344881E0,2.361511E0,0E0,0E0,0E0,1.8964088E0,9.8967767E-1,1.4537439E0,0E0,0E0,3.6618776E0,2.0550613E0,0E0,0E0,0E0,3.861128E-1,9.2803574E-1,2.5096087E0,5.611968E-2,1.0211028E0,1.5227112E0,1.405687E0,0E0,0E0,0E0,1.3799133E0,0E0,0E0,0E0,0E0,0E0,0E0,0E0,0E0,0E0,0E0,0E0,0E0,0E0,0E0,0E0,0E0,0E0,0E0,0E0,0E0],"parents":[2147483647,0,0,1,1,2,2,3,3,4,4,5,5,6,6,7,7,8,8,9,9,10,10,11,11,13,13,14,14,15,15,16,16,17,17,18,18,21,21,22,22,26,26,27,27,28,28,31,31,32,32,36,36,37,37,38,38,39,39,40,40,41,41,42,42,46,46],"right_children":[2,4,6,8,10,12,14,16,18,20,22,24,-1,26,28,30,32,34,36,-1,-1,38,40,-1,-1,-1,42,44,46,-1,-1,48,50,-1,-1,-1,52,54,56,58,60,62,64,-1,-1,-1,66,-1,-1,-1,-1,-1,-1,-1,-1,-1,-1,-1,-1,-1,-1,-1,-1,-1,-1,-1,-1],"split_conditions":[2.979452E-1,2.5E-1,1.15384616E-1,2.720848E-1,5.136986E-2,3.0803573E-1,3E-1,2.5675675E-1,3.7812042E-1,2.6712328E-1,1.2771285E-1,1.6197184E-1,2.9976377E-1,1.7410713E-1,6.928214E-2,4.5384616E-1,4.0051395E-1,5.821918E-2,1.1160714E-1,-1.11893244E-1,2.7927615E-2,1.7491166E-1,2.568493E-1,-1.1599628E-1,1.8433781E-1,-1.5814903E-1,4.640411E-1,5.5926546E-2,4.9295776E-2,-1.4952716E-1,2.7046151E-2,7.929883E-2,4.5774648E-1,2.1161811E-1,3.0932749E-2,1.1813635E-1,1.3439065E-1,8.430718E-2,2.7739727E-1,4.099099E-1,1.3380282E-1,4.07489E-1,6.1130136E-1,6.957118E-2,-1.5998602E-1,-1.1862234E-1,1.7779633E-1,1.8242317E-1,3.6784676E-3,1.2678592E-1,-5.3666692E-2,-1.5437582E-1,-2.3739167E-2,7.138247E-2,2.4429841E-1,-1.07799314E-1,2.1043243E-1,3.3240497E-1,1.01936854E-1,9.577705E-2,-7.130419E-2,-1.11283444E-1,5.0000202E-2,-1.3540533E-1,1.2392877E-1,1.2317892E-1,-8.0347255E-2],"split_indices":[1,1,10,6,3,0,10,8,7,1,4,5,0,0,4,10,7,3,0,0,0,6,1,0,0,0,1,4,5,0,0,4,5,0,0,0,4,4,1,8,5,7,1,0,0,0,4,0,0,0,0,0,0,0,0,0,0,0,0,0,0,0,0,0,0,0,0],"split_type":[0,0,0,0,0,0,0,0,0,0,0,0,0,0,0,0,0,0,0,0,0,0,0,0,0,0,0,0,0,0,0,0,0,0,0,0,0,0,0,0,0,0,0,0,0,0,0,0,0,0,0,0,0,0,0,0,0,0,0,0,0,0,0,0,0,0,0],"sum_hessian":[4.1227823E2,2.5060683E2,1.616714E2,1.8907558E2,6.1531242E1,6.7131176E0,1.549583E2,1.750652E2,1.4010377E1,2.5989783E0,5.8932262E1,3.2845805E0,3.4285371E0,8.95594E1,6.539889E1,3.8970933E0,1.711681E2,3.7370622E0,1.0273315E1,1.4920152E0,1.106963E0,4.470175E1,1.4230511E1,1.5994889E0,1.6850915E0,5.080898E0,8.447851E1,5.7443905E0,5.9654495E1,2.7592468E0,1.1378464E0,4.9577988E1,1.21590126E2,1.4440098E0,2.2930522E0,1.2318237E0,9.0414915E0,3.7587357E1,7.114398E0,3.0072744E0,1.1223236E1,7.379542E1,1.0683087E1,1.88742E0,3.8569705E0,1.7589612E0,5.7895535E1,1.3463505E1,3.6114483E1,1.16147835E2,5.442285E0,5.452964E0,3.5885277E0,4.1517596E0,3.3435596E1,4.1438885E0,2.970509E0,1.5991799E0,1.4080944E0,5.21663E0,6.0066066E0,4.7619095E0,6.903351E1,9.200348E0,1.4827393E0,5.538807E1,2.5074644E0],"tree_param":{"num_deleted":"0","num_feature":"11","num_nodes":"67","size_leaf_vector":"0"}},{"base_weights":[-4.019533E-2,-3.7729818E-1,1.9863252E-1,-4.796177E-1,-1.4519188E-1,5.0852543E-1,6.6313565E-2,-5.052902E-1,8.591861E-2,-2.1251214E-1,6.3545406E-1,1.5907604E-1,6.383365E-1,-1.1227946E-1,2.9911876E-1,-3.5201854E-1,-5.3373015E-1,5.9037846E-1,-3.4506956E-1,3.323947E-1,-3.3707184E-1,-4.8347437E-1,4.7942197E-1,-3.6323816E-1,7.011019E-1,-1.0101569E-2,-5.130577E-1,6.121068E-2,4.3879563E-1,-4.781152E-1,-1.2978293E-1,1.0397804E0,-2.1427411E-1,-4.0094528E-1,2.4098232E-1,8.997738E-1,-2.5270233E-2,-2.042945E-2,7.41425E-1,-1.6482861E-1,5.65449E-1,-3.8878223E-1,6.246389E-1,-4.5540613E-1,5.9739506E-1,3.4403867E-1,-4.1812447E-1,-3.8989228E-1,1.6552185E-1,-4.821304E-1,2.062358E-1,-2.8165004E-1,4.47099E-1,8.138222E-1,2.3134421E-1,1.841515E-1,-2.9946408E-1,-3.4988475E-1,7.9958755E-1,4.4304317E-1,-5.615543E-1,2.7473727E-1,1.0768601E0,8.1090945E-1,1.0489737E-1],"categories":[],"categories_nodes":[],"categories_segments":[],"categories_sizes":[],"default_left":[true,true,true,true,true,true,true,true,true,true,false,true,true,true,true,true,false,false,false,true,true,false,true,false,true,true,false,true,true,false,true,false,true,true,false,false,true,false,true,true,true,true,true,false,true,false,false,false,false,false,false,false,false,false,false,false,false,false,false,false,false,false,false,false,false],"id":26,"left_children":[1,3,5,7,9,11,13,15,17,19,-1,21,23,25,27,29,-1,-1,-1,31,33,-1,35,-1,37,39,-1,41,43,-1,45,-1,47,49,-1,-1,51,-1,53,55,57,59,61,-1,63,-1,-1,-1,-1,-1,-1,-1,-1,-1,-1,-1,-1,-1,-1,-1,-1,-1,-1,-1,-1],"loss_changes":[1.8966196E1,2.2494144E0,5.6248364E0,1.0210772E0,1.7804966E0,1.7647495E0,4.102179E0,9.353447E-2,1.0252825E0,2.1193213E0,0E0,2.799721E0,2.1196213E0,2.292255E0,1.3938472E0,3.0341303E-1,0E0,0E0,0E0,2.5453346E0,1.003725E0,0E0,1.8953953E0,0E0,8.373003E-1,4.1651745E0,0E0,4.5473065E0,4.069408E0,0E0,9.763765E-1,0E0,3.4580344E-1,1.2084882E0,0E0,0E0,7.294977E-1,0E0,8.010168E-1,1.7847365E0,2.4044144E0,1.6939023E0,9.577024E-1,0E0,2.3518896E0,0E0,0E0,0E0,0E0,0E0,0E0,0E0,0E0,0E0,0E0,0E0,0E0,0E0,0E0,0E0,0E0,0E0,0E0,0E0,0E0],"parents":[2147483647,0,0,1,1,2,2,3,3,4,4,5,5,6,6,7,7,8,8,9,9,11,11,12,12,13,13,14,14,15,15,19,19,20,20,22,22,24,24,25,25,27,27,28,28,30,30,32,32,33,33,36,36,38,38,39,39,40,40,41,41,42,42,44,44],"right_children":[2,4,6,8,10,12,14,16,18,20,-1,22,24,26,28,30,-1,-1,-1,32,34,-1,36,-1,38,40,-1,42,44,-1,46,-1,48,50,-1,-1,52,-1,54,56,58,60,62,-1,64,-1,-1,-1,-1,-1,-1,-1,-1,-1,-1,-1,-1,-1,-1,-1,-1,-1,-1,-1,-1],"split_conditions":[3.1538463E-1,2.423077E-1,1.4726028E-1,6.3392854E-1,6.5E-1,7.191781E-2,4.846154E-1,1.0267112E-1,1.4383562E-1,9.098497E-2,1.9063623E-1,3.2589287E-1,7.191781E-2,3.7328768E-1,9.246576E-2,2.723214E-1,-1.6011906E-1,1.7711355E-1,-1.0352087E-1,2.5384617E-1,1.7111853E-1,-1.4504232E-1,4.5499998E-1,-1.08971454E-1,3.5211265E-2,3.0479452E-1,-1.5391731E-1,6.384616E-1,1.6517857E-1,-1.4343457E-1,3.0803573E-1,3.119341E-1,4.151786E-1,6.081081E-1,7.22947E-2,2.6993215E-1,4.1549295E-1,-6.128835E-3,5.810811E-1,1.7465754E-1,5.18018E-1,7.589286E-2,9.015025E-2,-1.3662185E-1,6.1538464E-1,1.03211604E-1,-1.2543735E-1,-1.16967686E-1,4.9656555E-2,-1.4463913E-1,6.1870743E-2,-8.4495015E-2,1.341297E-1,2.4414667E-1,6.940327E-2,5.524545E-2,-8.983923E-2,-1.04965426E-1,2.3987627E-1,1.3291296E-1,-1.684663E-1,8.242118E-2,3.2305804E-1,2.4327284E-1,3.1469215E-2],"split_indices":[10,10,1,0,2,3,10,4,1,4,0,0,1,1,3,0,0,0,0,10,4,0,2,0,5,1,0,10,0,0,0,0,0,8,0,0,5,0,8,1,8,0,4,0,10,0,0,0,0,0,0,0,0,0,0,0,0,0,0,0,0,0,0,0,0],"split_type":[0,0,0,0,0,0,0,0,0,0,0,0,0,0,0,0,0,0,0,0,0,0,0,0,0,0,0,0,0,0,0,0,0,0,0,0,0,0,0,0,0,0,0,0,0,0,0,0,0,0,0,0,0,0,0,0,0,0,0,0,0,0,0,0,0],"sum_hessian":[2.3364609E2,9.66483E1,1.3699779E2,6.633808E1,3.031022E1,4.014184E1,9.685594E1,6.3559334E1,2.7787468E0,2.8573881E1,1.7363403E0,1.1475479E1,2.8666365E1,5.5102554E1,4.1753387E1,1.20415E1,5.1517834E1,1.1098604E0,1.6688864E0,5.0059543E0,2.3567926E1,3.6483622E0,7.827117E0,1.4081812E0,2.7258183E1,4.4725143E1,1.0377411E1,1.5977517E1,2.5775871E1,6.947879E0,5.0936213E0,1.7889872E0,3.2169669E0,2.1498758E1,2.0691676E0,3.84328E0,3.983837E0,1.4688207E0,2.5789362E1,3.5811455E1,8.913689E0,9.055298E0,6.9222193E0,3.6010897E0,2.2174782E1,1.8539411E0,3.2396803E0,2.1816058E0,1.035361E0,1.9144882E1,2.3538766E0,2.8439987E0,1.1398383E0,2.2062492E1,3.7268703E0,9.8672905E0,2.5944164E1,1.7149535E0,7.1987348E0,1.2883086E0,7.766989E0,4.808905E0,2.1133142E0,1.5017613E1,7.157168E0],"tree_param":{"num_deleted":"0","num_feature":"11","num_nodes":"65","size_leaf_vector":"0"}},{"base_weights":[-3.6471394E-1,-4.1739324E-1,-4.0281196E-3,-3.1988358E-1,-5.125422E-1,3.9870209E-1,-2.0040935E-1,4.8637945E-2,-3.6917147E-1,1.8414587E-1,-5.2497166E-1,-1.7283985E-2,8.7447965E-1,-3.9430267E-1,6.0886735E-1,-3.9872104E-1,2.4219984E-1,-3.9344877E-1,2.8801373E-1,-5.375305E-1,-2.767656E-1,-3.9824516E-1,3.8255805E-1,1.0970182E0,3.66392E-1,-5.1311445E-1,1.666321E-2,8.929256E-1,6.1162647E-2,-3.264063E-1,4.2139617E-1,2.4512656E-1,-4.181002E-1,2.1946964E-1,-4.3133616E-1,-3.9171207E-1,5.784917E-1,6.5411943E-1,-7.130394E-2,6.677315E-1,-2.8498155E-1,-4.4377688E-1,9.7955994E-2],"categories":[],"categories_nodes":[],"categories_segments":[],"categories_sizes":[],"default_left":[true,true,true,true,true,true,true,true,true,false,true,true,true,true,true,false,true,true,false,false,true,false,false,false,false,false,true,false,false,false,true,true,true,false,false,false,false,false,false,false,false,false,false],"id":27,"left_children":[1,3,5,7,9,11,13,15,17,-1,19,21,23,25,27,-1,29,31,-1,-1,33,-1,-1,-1,-1,-1,35,-1,-1,-1,37,39,41,-1,-1,-1,-1,-1,-1,-1,-1,-1,-1],"loss_changes":[3.3306618E0,1.2557564E0,1.9274323E0,1.4389505E0,7.5294876E-1,1.5968064E0,2.8085175E0,9.722296E-1,1.2161112E0,0E0,8.413887E-2,9.51199E-1,2.1766901E-2,6.829443E-1,4.987496E-1,0E0,9.201372E-1,1.1584558E0,0E0,0E0,5.2879965E-1,0E0,0E0,0E0,0E0,0E0,1.1595085E0,0E0,0E0,0E0,7.6633E-1,8.900859E-1,9.0418816E-1,0E0,0E0,0E0,0E0,0E0,0E0,0E0,0E0,0E0,0E0],"parents":[2147483647,0,0,1,1,2,2,3,3,4,4,5,5,6,6,7,7,8,8,10,10,11,11,12,12,13,13,14,14,16,16,17,17,20,20,26,26,30,30,31,31,32,32],"right_children":[2,4,6,8,10,12,14,16,18,-1,20,22,24,26,28,-1,30,32,-1,-1,34,-1,-1,-1,-1,-1,36,-1,-1,-1,38,40,42,-1,-1,-1,-1,-1,-1,-1,-1,-1,-1],"split_conditions":[4.5034248E-1,1.7664671E-1,9.281437E-2,5E-3,1.6666666E-1,4.4273126E-1,7.522522E-1,1.7692308E-1,6.4732146E-1,5.5243764E-2,2.2370619E-1,6.1130136E-1,1.1519198E-1,3.923077E-1,5.3253424E-1,-1.19616315E-1,1.5178572E-1,1.03846155E-1,8.640412E-2,-1.6125914E-1,2.5041735E-1,-1.19473554E-1,1.1476742E-1,3.291055E-1,1.099176E-1,-1.5393434E-1,4.6402347E-1,2.678777E-1,1.8348794E-2,-9.792189E-2,1.2186979E-1,5.17254E-1,3.5958904E-1,6.584089E-2,-1.2940085E-1,-1.1751363E-1,1.735475E-1,1.9623584E-1,-2.1391183E-2,2.0031947E-1,-8.5494466E-2,-1.3313307E-1,2.93868E-2],"split_indices":[1,9,9,2,8,7,8,10,0,0,4,1,4,10,1,0,0,10,0,0,4,0,0,0,0,0,7,0,0,0,4,7,3,0,0,0,0,0,0,0,0,0,0],"split_type":[0,0,0,0,0,0,0,0,0,0,0,0,0,0,0,0,0,0,0,0,0,0,0,0,0,0,0,0,0,0,0,0,0,0,0,0,0,0,0,0,0,0,0],"sum_hessian":[1.7438022E2,1.5202E2,2.2360224E1,7.7232864E1,7.478713E1,6.9917E0,1.5368524E1,9.112515E0,6.8120346E1,1.0687193E0,7.3718414E1,4.2443843E0,2.747316E0,1.28117485E1,2.5567749E0,2.4319332E0,6.6805825E0,6.608056E1,2.0397913E0,6.90585E1,4.6599145E0,2.1755548E0,2.0688295E0,1.1044589E0,1.642857E0,9.745679E0,3.0660696E0,1.2685544E0,1.2882205E0,1.4040151E0,5.2765675E0,2.1237164E0,6.395684E1,1.0070385E0,3.6528761E0,1.9508497E0,1.11522E0,3.361273E0,1.9152944E0,1.0372229E0,1.0864934E0,6.1058884E1,2.8979583E0],"tree_param":{"num_deleted":"0","num_feature":"11","num_nodes":"43","size_leaf_vector":"0"}},{"base_weights":[-4.6216017E-1,-4.930104E-1,-7.7051565E-2,2.9868465E-2,-5.0505334E-1,-4.6651718E-1,2.5877988E-1,6.1839306E-1,-3.7750417E-1,-3.7585017E-1,-5.293505E-1,-3.1016275E-1,4.290966E-1,1.7212687E-1,-4.7689086E-1,6.30743E-1,-2.9577228E-1,-3.936077E-1,9.96788E-1,-5.173979E-1,-1.972739E-1,8.950952E-1,3.0299523E-1,-3.8835108E-1,2.2653235E-1,-3.0489156E-1,7.00426E-1],"categories":[],"categories_nodes":[],"categories_segments":[],"categories_sizes":[],"default_left":[true,true,true,true,true,false,true,false,false,true,false,false,true,true,true,true,false,false,false,false,true,false,true,false,false,false,false],"id":28,"left_children":[1,3,5,7,9,-1,11,-1,-1,13,-1,-1,15,17,19,21,-1,-1,-1,-1,23,-1,25,-1,-1,-1,-1],"loss_changes":[1.8267479E0,9.289589E-1,1.7983047E0,1.2431515E0,2.4656296E-1,0E0,8.627943E-1,0E0,0E0,1.5167954E0,0E0,0E0,1.0949982E0,2.6172104E0,1.4873648E-1,1.7773485E-1,0E0,0E0,0E0,0E0,4.457556E-1,0E0,1.1376871E0,0E0,0E0,0E0,0E0],"parents":[2147483647,0,0,1,1,2,2,3,3,4,4,6,6,9,9,12,12,13,13,14,14,15,15,20,20,22,22],"right_children":[2,4,6,8,